9.296876654782535443e-01,7.017651583891360012e-01,-7.661453559305775318e-01,7.954131273193332241e-01,6.701144818718709484e-01,-4.386851941096665541e-01,8.438766291386443630e-01,5.867585537773842841e-01,8.835535676016055273e-01,-4.328851712838766019e-02,-8.540794314715172142e-02,5.657220466830272798e-01,3.953854655168846932e-01,7.308741491934174217e-01,-9.933273007843366198e-01,-3.147250966549357543e-01,-7.163335353424433727e-01,9.333438462146281811e-01,-9.200495657670546557e-01,-9.206720662717853276e-01,8.207271274879066603e-01,-5.608935505976084812e-01,-3.192626762323416134e-01,-3.731330385296351970e-01,-9.257228488107056563e-01,8.143313294856306950e-01,-9.123378845916136903e-01,-4.330925617334913102e-01,-2.272753143985757340e-01,-9.176320120551719750e-01,8.634088676930173900e-01,1.710273711646415062e-01,-3.784241999967432601e-01,1.116050435862134815e-01,9.454845671138789598e-02,-3.664190557727287079e-01,2.213426881842295302e-02,-8.156080793076305735e-01,5.040654615330379951e-01,-9.674407274575043125e-01,5.011089349818065308e-02,-4.646531001651688086e-03,2.225427197314417960e-01,-5.174490606308876917e-01,5.843234309237133051e-01,-4.126150588352737181e-01,-8.714114805519235230e-01,-4.130013176045310708e-01,-1.018738693031313591e-01,-5.488771773541234467e-01,5.002536703333504420e-01,1.267589325099902631e-01,8.461957776030277767e-01,-8.885293896610833020e-01,5.658164707015078676e-02,3.215492981950893725e-01,6.960335353540576531e-01,-9.944675344827029750e-01,-8.946176835589312315e-01,-2.730189800456277460e-01,-2.735859275398566659e-01,6.180563408318677787e-01,-1.684748959975717053e-01,-1.305956849127749564e-01,3.006052757320032409e-01,5.140064815466411918e-01,-2.314653761266258769e-01,-4.739004694208857060e-01,-9.661129800526675471e-01,-4.280703288497178516e-01,6.030359690716298182e-01,-2.120336569960379336e-01,-7.448158449358279753e-01,-3.740943601763511150e-01,4.940206436899559073e-01,-8.200619324689191192e-01,-5.504354033261220636e-01,3.249170096665709995e-01,2.893799018214491259e-01,4.604211953244732314e-01,6.289338313446466433e-01,-4.763748285733813148e-01,-2.127544226753186329e-02,-8.486058538541287888e-01,-9.631351915752526249e-01,-3.237618141842215636e-01,-6.333832771975456133e-01,-4.708687995772598001e-02,3.128687701819137246e-01,-8.787843872255531874e-01,-5.158791688484893889e-01,-5.683197279076370734e-01,4.820598242202895900e-01,-2.080166201556201688e-01,2.507972659605035570e-01,-5.661840784692697692e-01,2.806925226465417644e-02,-6.195874303140027628e-01,5.976934619084786071e-01,3.575242906402964493e-02
