-6.240059756915317113e-01,-3.597073533197121531e-01,1.828597089326078340e-02,-4.110803459153615780e-01,-4.809129687336710646e-03,2.165822437009805590e-01,-7.791490875478281897e-01,5.575686518611890907e-01,6.199933590687372043e-01,8.956030734981852426e-01,-6.732481223606585630e-01,7.943058735114496560e-01,-1.537853909867552549e-01,1.822290806070450131e-01,5.069996803234337879e-01,-3.931870621880528827e-01,-1.753354909546116502e-01,7.685832732896999975e-01,2.174989951346506523e-01,5.053491373199439085e-01,-9.619304888089363903e-01,-5.866926085330037566e-01,8.648036628337194553e-01,-9.667001734828055692e-01,-1.270001771277671221e-01,3.879503453964583404e-01,2.433090348838258254e-01,9.941593576532010701e-01,6.305425786006402245e-01,5.131716354413442538e-01,8.555481754600731126e-01,-5.491642670253433778e-01,-3.311780774562831375e-01,-7.627987600125478718e-01,-4.126742879927718377e-01,2.609016228170764062e-01,7.113633169093724895e-02,-1.544132122832819753e-01,-1.062878734569545625e-01,-8.722496811671784922e-01,-9.349360517507143697e-02,9.732195891032295876e-01,-5.828385159963334061e-01,-9.598891072737387731e-01,-7.791580655131242761e-01,-6.837891955547565903e-01,1.486682227558024927e-01,2.453587296387782501e-03,9.512921148605157917e-01,2.681174293189947377e-01,-9.164081611805687810e-01,8.322566983542913910e-01,1.072364903496016986e-01,-8.295457260793992482e-02,-6.178268575627532400e-02,8.371053388041449494e-01,3.058719631679887030e-01,5.446405957091304817e-01,1.858977179389120771e-01,9.500526671853533056e-01,-8.758975823623227352e-01,9.302313289291739284e-01,2.937804603825340255e-01,3.817890917881756607e-01,-2.744481270224130576e-02,-7.911959775767216652e-01,-6.127799365965063139e-01,7.428783997548780160e-01,1.386079797283465975e-01,4.653882480253725973e-01,-9.545437275882351358e-01,5.761804775838750281e-01,7.494318354193436615e-01,6.693006978438356125e-01,3.715990702888096742e-01,-8.445454152383602420e-02,-5.926555668015232037e-01,-4.021175487197310439e-01,-9.265590892892583419e-02,1.831225416884387780e-01,-1.677827703306198348e-01,4.461037397115981129e-01,3.623975865767072868e-01,9.844603368376925179e-01,-5.074616570858132558e-01,9.992289360887314231e-01,-9.868273240356419951e-01,7.624842971447154394e-01,9.761679812182246785e-01,-2.864762344782401104e-01,8.314242776667035706e-02,7.852781603411174149e-01,-2.301534024904408060e-01,-9.733408836011474552e-01,-6.922531419166324529e-01,4.923621515097607038e-01,-5.255679892320554991e-01,7.783829635145937953e-01,2.573736384131619648e-01,-4.296455188546015602e-01,5.521729435752393833e-01,3.004294676871441805e-01,-2.695648320906407491e-02,5.672684843493387419e-01,3.315378381772313698e-01,-5.182043655654569037e-01,6.780386902820787487e-01,5.414261946252498792e-01,-2.981405232508729242e-01,-5.306914727265410470e-02,-5.419239048987314344e-01,-5.417025136243589500e-01,-1.507649052172432835e-01,5.914654852688050468e-02,-4.600945582269180267e-01,8.365702420793819094e-02,3.753792617086486594e-01,-3.753737864378536848e-01,-7.333804471856026908e-01,-3.913873456761873815e-01,3.774293185120425331e-01,7.858825276650338587e-01,-1.268666015852368822e-01,2.536255798761621882e-02,-3.683667415515778920e-01,-7.732511302741946757e-01,-6.111468898349670109e-01,-1.702244432502326710e-01,4.199253452972204759e-01,-1.615830569648766257e-01,8.248924821526844031e-01,-3.080925800964919858e-01,-3.898106031024639595e-01,-9.195890128760653148e-01,-1.528226139984614207e-01,-9.316635501571393085e-01,-8.082071256550562577e-01,3.798381605498895031e-01,-2.989540395629375347e-02,-5.401712950964809856e-01,5.161993417019492547e-01,-6.049579326012168856e-01,4.852443356454225754e-01,6.903931668033291835e-01,8.030660287245738882e-01,-9.848251757036297072e-02,-7.679721379118276126e-01,2.427365419386473544e-01,2.203048799672899793e-01,-4.972418584506250738e-01,-3.783642550109811431e-02,2.984654668523329946e-01,3.133981596400710057e-01,9.705625907932760033e-01,3.193149676771154244e-01,-6.074428961835875995e-02,-5.166772751657782159e-01,-1.610264784274400007e-01,3.212523418444868106e-01,-1.937637511185712480e-01,-6.281404616597361379e-01,9.239569442012567357e-01,-4.132559742947590209e-01,-6.172066287627120396e-02,7.625002818742976363e-01,-6.324979876529497336e-01,4.830782852256523263e-01,9.468057141510859420e-01,1.677158203564392824e-01,-5.410348205291803936e-02,-4.016369502711019113e-01,-7.583423785682099627e-01,5.330886198217044125e-02,2.974426053540106807e-01,-6.244986795330143003e-02,7.794271753041310813e-01,-2.769135669961175772e-01,1.306298619594135069e-01,-3.015545020564802670e-01,7.105735557216772413e-01,-1.443992022705884448e-01,-9.308861614173167265e-01,9.996761604655319822e-01,1.601172502063819003e-02,-8.813217171976555075e-01,-3.343165745338483319e-02,4.688847840975647330e-01,-3.121027193343621775e-01,5.823557189604735562e-01,4.769137622978563140e-01,-6.154196876811188766e-01,5.861401579812388629e-01,4.932886837533063673e-01,8.307162109617503010e-01,-8.683360974727687420e-01,7.413046146092290289e-01,8.084773907367297507e-01,3.419224489341765594e-01,-1.950954580725250409e-01,-1.328778652724189602e-01,4.368606618603769753e-01,-8.397463748552036478e-02,-4.294331484310838221e-01,2.132484745376896917e-01,-8.756426895893065776e-01,2.075752426891588343e-01,4.200252398180825963e-02,-8.195779303317920483e-01,-9.838965700827322358e-01,-8.897271162569935221e-01,-3.901568695647477103e-01,3.956341740471305268e-01,4.501037401648964043e-01,-5.665339848574155734e-01,-5.821180586890859487e-01,1.581803577764313573e-01,7.473483209081583922e-01,5.467059829144582661e-01,6.849292495190772989e-02,-1.335523480150841991e-01,-9.120953994245546426e-01,-4.736247769709134303e-01,-7.956244060644486193e-01,-8.812777546535075501e-01,2.808400043420899994e-01,4.594860736676438240e-01,-7.354595740737956966e-02,-5.716135560360193768e-01,-3.857335748026706757e-01,4.636450009337906852e-01,-6.372787161622566199e-01,-5.154367161006923048e-02,-5.602956131698930697e-01,-2.765763117084469869e-01,-2.277967431299317003e-01,1.672674639675637565e-01,7.457753670003257618e-01,-8.334116549623875603e-01,-9.531676455569542128e-01,2.225993349052624026e-01,1.898579801810538203e-01,5.494861506451709232e-01,-2.243499421871490984e-01,5.944362510337615202e-01,1.000061743961127014e-01,-1.044567224098527092e-01,-9.377374391403598963e-01,-8.529541922378369723e-01,4.314821704012459236e-01,2.304005375486126717e-01,9.127734455242451084e-01,-3.897256084663671682e-01,7.958327662570052752e-02,-7.576804290270096054e-01,4.635567211393687437e-02,-5.689559429056800788e-01,7.286571598851487863e-03,-2.231308408004801791e-01,8.344952672338270538e-01,-8.363278482235916300e-01,-3.850366801434921271e-01,6.709400600697774664e-01,2.828950858511916078e-01,4.343593563497822885e-01,1.679546217523637530e-01,-6.858600451481047244e-01,2.149742560049392459e-01,2.848340186234643578e-01,8.513874668743921514e-01,4.366616942858099204e-01,8.127299402802228290e-01,-1.490749112446243529e-02,-5.549449642705142072e-01,9.991622989862480875e-01,-4.315421974428581553e-01,9.653877490095148506e-01,-8.939327283409341796e-01,8.085011514315807446e-01,6.422170622421985442e-01,8.379133301375898402e-01,-3.524381446138908913e-01,-7.505798420398650528e-01,-3.913405072294675602e-01,-5.669267859024069711e-01,-1.436060328494350724e-01,2.089733133519606767e-01,-6.241780173391777709e-01,9.232788365741608771e-01,9.293944336459873945e-01,3.557564020193986210e-01,-4.923807885665183459e-01,-7.524472845186092052e-01,-5.307559038842413202e-01,2.749864363433021097e-01,5.315036940189865611e-01,7.308466777400777215e-01,-1.269338980952114948e-01,-3.286375476886445046e-01,1.058637564917341845e-01,-1.772488244632406396e-01
