-2.779199578922155744e-01,-7.569445456158359065e-01,3.976073643300572780e-01,-9.074587727352003697e-01,8.183698135126749040e-01,4.205315719793027984e-01,-9.598219533644702928e-02,-4.746671026818212180e-01,6.168242432343573611e-01,-9.548371358680936005e-01,-2.413624241496867828e-01,-9.451517806661848820e-01,-7.225086185026825536e-01,-9.437986529471815711e-01,2.480285753400213178e-01,-7.937782142495914961e-01,-5.014642876246151459e-01,6.079429153620241610e-01,5.529777909909043832e-01,8.961572381087410388e-01,-1.008560335369104166e-01,-3.728927169614604242e-01,8.329227807732375588e-01,-9.939907856486882576e-01,3.382396029598702114e-01,-9.891882597385184273e-01,-2.408551056230234799e-01,-1.821985335493021552e-01,8.917961783546555221e-01,-1.799899402910780655e-01,5.196568893346733553e-01,-2.713341323603142285e-01,9.784614538319411636e-01,-7.523163633329645883e-01,-7.136718647504893820e-01,-8.384681695557010261e-01,-6.668953609928358617e-01,-3.920974463415725086e-01,8.885232653064998321e-01,4.646875145908970772e-01,4.851783233068573953e-01,7.234626052553230213e-01,1.460256735909326586e-02,8.967464840795502656e-01,8.449048536435426193e-01,-6.246833468938028933e-01,1.721917163512896032e-01,-2.873144353175249854e-01,-1.976095393537709022e-01,8.230889924345645703e-01,9.798097332069535259e-01,6.561948530784742495e-01,3.590763453867513721e-01,-4.767735410713964672e-01,4.377123821998152309e-02,9.862296071964118394e-01,6.360119581276497680e-01,1.190317869976338372e-01,-3.338880656201095309e-01,-2.139679213841989558e-01,-8.300525209100266810e-01,8.093660278986865020e-01,-3.085825039681950877e-01,1.288948455914211699e-01,-7.049815891971034088e-01,4.012684686207168561e-02,1.933663708096564626e-01,-9.085593307210493297e-01,-1.526485968136983562e-01,-1.533305968793270413e-01,-3.870492600425488039e-01,-9.461528909410774624e-01,4.447631865673202789e-01,-1.455890665470849221e-01,-7.158299472466589375e-01,-1.065757405205771668e-01,7.693257637523573944e-01,-1.094472864106315058e-01,6.313552960537485159e-01,-8.500695533595146181e-01,9.889198323141936697e-01,9.068560555924785049e-01,9.128556670690839425e-01,1.928519157372523551e-01,-4.799172856342601712e-01,3.836928082658692674e-01,-8.724045594908893531e-01,1.740771006597123804e-01,9.003692610378899452e-02,-6.591847689498180340e-01,2.119652245025032133e-01,4.317763866460648803e-01,-4.380693657012553199e-01,-1.711244543451082567e-01,-1.458365833624941654e-01,3.427979187897507440e-01,1.294008403571020871e-01,6.002513749355400385e-01,-6.279400115938904570e-02,1.176376282971696163e-01
-9.244429169755745690e-01,5.759704310198772159e-01,-9.576621913379497197e-01,-4.266014488618938838e-01,3.027238554455335962e-01,-6.601083693244500505e-01,1.098355076222206073e-01,-8.473598701077209583e-01,5.048765701053525845e-02,-7.244095065460802729e-01,2.711663902272480886e-01,9.568489507365649516e-01,-7.910777304575864477e-01,-8.776841777153181479e-01,4.184387925153414400e-01,5.067316427821950686e-01,-8.434229411363116657e-01,-2.521047008415484569e-01,-7.315930740418630229e-02,-9.294875377396658589e-01,-6.404247022101594577e-01,-3.926399713161476956e-01,7.591900760312111363e-01,3.543724798467564607e-01,-7.727720821281980346e-01,-2.260612777614026125e-01,3.541189960070976195e-01,-8.446617719348969988e-01,-8.764601118687518344e-01,-4.022958820886239906e-01,-8.272519330014553862e-01,-7.460657682277023195e-01,8.515837696971018111e-02,4.514279517628254634e-01,7.806515569162986168e-02,-6.689256835359007614e-01,3.245352460130765948e-01,4.078099276445144028e-01,6.100321318186014974e-01,9.456962955513019686e-01,-2.777713608250851340e-01,5.531697489275626545e-01,9.390307978574372605e-01,4.501000281726550423e-01,6.699436304880421744e-01,-6.190792629396524305e-01,-7.063749974715827218e-01,-1.929374787685920190e-01,-9.300220211000016501e-01,1.309848507942406037e-01,-6.847319304753862745e-01,-5.296373835569851973e-01,9.301808118598240416e-01,9.669202593220049824e-01,-3.691402741737188631e-01,3.730844006903093479e-01,-7.149024603807077050e-01,8.373854319843658800e-01,2.893542549680550025e-01,6.612971130485294502e-01,6.950104546539586092e-01,2.514167600925001356e-01,5.189978671003661059e-01,-2.048013167818569791e-01,-5.878171919085877217e-01,-1.342374860231723144e-01,8.028232941841553227e-01,9.140871279369515712e-01,-4.486525968520465035e-01,-9.830902729336139512e-01,7.062582864773445657e-01,4.404050374643420085e-01,7.261800220813194873e-01,-7.542925317564197485e-02,8.290231275675741252e-01,-9.255639663435826225e-01,-4.563260468405634374e-01,6.477718989487313284e-01,4.577536082434163767e-01,7.889921755314621699e-02,4.364797239453777067e-02,8.540776027884877664e-02,3.480278526690283591e-01,6.042565193413949043e-01,8.235579878758505501e-01,8.280304313950539452e-01,7.195207300853585508e-01,9.887360428641533971e-02,-2.965146037805836965e-01,-3.111469032049454242e-01,3.030107349622526147e-01,-9.460256632033874347e-01,-4.760867069350280811e-01,-5.911540846658009940e-01,3.968465088989006073e-01,-3.995803096975216739e-01,6.695332995732594661e-01,9.784206003204451996e-01,3.455261581686353001e-01,-3.106799144458853856e-01
-7.112582794191113500e-02,8.886415002444032485e-01,-2.636836442353622800e-01,-6.683982294330828022e-01,5.584855863285287381e-01,-1.477421236348313016e-01,1.985572959931809489e-01,-5.382224409231195494e-03,-5.090393896401421703e-01,7.504692068942011574e-01,-5.604715605565826486e-01,9.308762590047447993e-02,8.246246549141209581e-01,7.676617727910364231e-01,4.820754817755870114e-01,-7.735318484095676794e-02,9.164373397392999721e-02,-9.039879466765854410e-01,-1.713996921239813176e-01,-2.667574252930968726e-01,-8.120105597479223558e-01,-3.169528747588623574e-01,-7.968780794729128925e-01,-6.047874497735472588e-02,-2.923607556093237303e-01,4.704601200027387353e-01,-5.291786172935506460e-01,3.389595611323148461e-01,-6.984755401992410739e-01,-9.575402535190866704e-01,8.256806223492165753e-01,-7.898920695779936274e-01,-4.309889122217502866e-02,4.118330072792917296e-01,-2.867382232067330339e-01,9.919290707161114717e-01,-3.663696428914073877e-01,6.054543448254268156e-02,8.788926559033722885e-01,-5.632344176457670937e-01,-3.390394303956656419e-01,-3.239754304637449955e-01,5.570829526104650320e-01,-4.396804034171868381e-01,-7.797893010834822114e-02,2.336745083372051557e-01,-1.564513424423423782e-01,4.900237120639137078e-01,-8.852377721388067222e-01,-2.332213654382369050e-01,4.947425782156025242e-01,2.713150986951691213e-01,2.421121814703632857e-01,-8.764974189908540936e-01,-7.483088481735276076e-01,3.344397703863102311e-01,-8.105744856257142139e-01,9.712418771569535370e-01,5.926844055460669392e-01,8.399665090951837776e-01,4.963836064996769437e-01,1.723232200896684940e-01,6.130183296198141729e-01,7.362914235230875182e-01,-8.615850826515221161e-01,3.690159681403812897e-01,7.925423202611807660e-01,-1.630025266717012311e-01,8.175696943030272834e-01,4.344251954409754646e-01,4.281987984394983737e-01,-2.511886402568448418e-01,-7.714410240125804119e-01,6.000297813091581833e-01,5.072565781946269947e-01,-4.332877520536002613e-01,-8.614332096276586803e-01,-8.789064568364506336e-01,-6.802266948872432994e-01,-6.044920206879704772e-01,-5.988877794841982460e-01,-2.154349148114398371e-01,5.627114202398690868e-01,-4.162042188432788503e-01,-9.241002017604056373e-01,-6.104581419354631056e-01,3.379732645310273842e-01,9.920568930137867447e-01,4.621050149391265904e-01,2.543618808100192030e-01,-5.202099173713015112e-01,2.778856244513021601e-01,-5.264710777644210360e-01,-7.355646768482637654e-01,-8.819431783620004239e-01,-5.738247477254310169e-01,-3.133918339124155406e-01,8.893917314336725610e-01,-5.124649154512517235e-02,-1.368901452245683270e-01
-4.007726646236040580e-01,-1.409920407632123673e-01,-1.247991721831560596e-01,-3.017725208509309809e-01,9.634040259080600688e-01,-6.756478191325439031e-01,7.095978247560319474e-01,-8.973547148723359790e-02,6.628860927593713814e-01,-6.706216797647839289e-01,-8.721174050309639103e-01,9.942915996430023995e-02,9.876118888280351893e-01,-6.175802725133301418e-01,4.125741738958477178e-01,-8.609092917972462899e-01,5.953993095509719780e-01,-1.016690196936540502e-01,-7.622248589276554576e-01,2.464825108368513540e-01,5.673769512289581485e-01,4.825444534849059330e-01,-5.266761377289936874e-01,-8.975077705106826453e-01,5.184938640252156894e-02,8.177105302417284616e-01,3.184136525483920455e-01,-4.763385043418411069e-01,-4.508058948534896526e-01,6.902414789650035409e-02,-5.048900091174446381e-02,6.897314257623430311e-01,7.138515152460411795e-01,-3.688374881738494260e-01,-3.186227756767638919e-01,2.157765699637832491e-01,8.716872612254431552e-01,-8.557592476686637362e-01,6.301060430263714096e-01,-1.372262080185744360e-01,4.646847820681754282e-01,-3.060513234807273886e-01,3.025442469653834010e-01,5.060598619955125610e-01,-9.395428381747841229e-01,3.871767018695804197e-02,-2.161477353987184546e-01,-1.122884577229512626e-01,9.915578842601799892e-01,1.623100071200898054e-01,5.622856643505993457e-01,6.001582585831832795e-02,-1.305431525890283773e-01,4.786910411735423310e-01,8.501400139350856477e-03,2.056109980688425320e-01,6.414603522559312321e-01,-2.100826071584904753e-02,9.127688255207535573e-01,-3.262260931422145127e-01,-6.665002945768323528e-01,5.214262695211524523e-01,-8.881989518610391432e-01,-4.017524052457841499e-01,9.105563169062640405e-01,-3.895163783548378778e-01,2.507032106365425506e-01,-4.016555111360580188e-01,-5.648614368867641566e-01,1.235601644678572253e-01,3.465465571961137137e-01,8.331167580600276068e-01,8.518362468548001942e-02,6.471245355961956491e-01,1.094572137518314836e-01,4.172226922167165952e-01,-8.459900444659378405e-01,-8.807358463114587366e-01,-5.476647518102122358e-01,-1.350197759067151004e-01,-7.287351277703388863e-01,-4.421132379804548762e-02,-6.436599793370030298e-01,9.990997380516799531e-01,-7.088859573188583951e-01,6.591018089150750825e-01,7.762020840081240713e-02,-8.165951988545250284e-01,-5.729111370898241073e-01,3.565527246290673968e-01,2.572591908999630750e-01,1.014548231524519117e-01,-3.556824917618823800e-01,-9.213413316960914479e-01,-5.039173913108958569e-01,3.507376613224899575e-01,1.818315447672544938e-01,-7.301970287025303374e-01,-2.121138600650758210e-01,-5.150083974930086406e-02
9.515735924922406053e-01,3.373812804425666556e-01,4.672655738101236800e-01,2.255063002277488682e-01,-2.171029259412249335e-01,-9.107175428851927990e-01,-3.612288748784497905e-02,-2.242355622587137720e-01,-7.018621301000742552e-01,-7.565595729899166066e-02,-2.042719394733574223e-01,-8.366635139889420092e-01,6.892274943214089511e-01,-9.328629031215389666e-01,5.712435675329781137e-01,-8.307494843534872775e-01,2.152733928769356986e-01,-3.116952057682542687e-02,3.618078797313393213e-01,-6.182382745596495255e-01,-1.729879229489885706e-01,2.326042235050151952e-01,5.090148225037796070e-01,9.378478520131861007e-01,-8.991128226577616012e-01,-8.825634085579343591e-01,6.188456090839795642e-01,5.144052633407987241e-01,8.161800622998260923e-01,1.838031288771764249e-01,-6.881258051693104338e-01,7.414493077370789553e-01,6.288004196206542495e-02,-9.527059726112938609e-01,6.662230732488050311e-01,3.145769768495836338e-01,1.411500330268666836e-02,9.591901428495757109e-01,3.881855365530626489e-01,-8.375558626141572649e-01,-7.795064925002639367e-01,-2.925883825983908171e-01,2.906183400789943416e-01,-5.638587485133024213e-01,9.391185558917958254e-01,-7.737198961369320394e-01,7.833109442936962985e-01,-3.748924797975343726e-01,4.181275091054483806e-01,-3.093173132056183938e-01,1.710206284704709478e-01,-1.697779974051334406e-01,5.820942922528491437e-01,1.738763739648452322e-01,-6.658483450979106877e-01,7.318276244848469503e-01,-3.143875762172188004e-01,-1.228129214227324795e-03,-3.974145527737054095e-01,1.001265426167836647e-01,5.837869002502151794e-01,-9.546772280955286849e-01,-9.926667502250015040e-01,-5.236977687476085386e-02,-6.180361048186910899e-01,3.978965288459859195e-01,-4.824562550067179600e-02,7.290802695943909839e-01,-3.963597285098889866e-01,1.322472682342075156e-01,7.134341339415661842e-02,5.094950340156456647e-02,-9.078622308541044461e-01,-4.038123867653147236e-01,-1.694813477183971795e-01,-5.180867831718471983e-01,-5.084507238001367835e-01,8.891913594823108724e-02,5.719260955632499144e-01,-4.397042494073588603e-01,1.043727847115916152e-01,2.459319174889342818e-01,-7.466892175725772240e-01,7.635079872001941936e-01,-9.427771184790196823e-01,6.321748905681949804e-01,-2.096081780663581196e-01,-6.988756088710763592e-01,-2.169493205411392456e-01,2.958381894040544857e-01,3.626400482901988021e-01,-9.660804982513029326e-01,-7.781944694366185189e-01,5.409090974983923328e-01,6.834319849851067108e-01,-8.106028270251397494e-02,7.094837005579921474e-01,-8.360536227791270925e-01,7.219692188570410174e-01,5.657446750664751889e-02
-1.068756208214971526e-01,-5.316388196826988821e-01,-6.234697712810266523e-02,8.989076575770160726e-01,8.416501567593657196e-01,2.352487755414629511e-01,-8.791218814671635240e-01,2.525775031209165356e-02,-7.275540649295986206e-01,-7.629601315999803290e-01,1.339637446281491950e-01,3.375580124148125361e-01,-3.936953713031585700e-01,7.362785012966996945e-01,9.145132049068154245e-01,-8.009904763314699139e-01,7.857220997761675818e-01,6.265526007638715367e-01,1.747304347179163830e-01,1.667827415830778204e-01,8.405602133973941736e-01,-5.917592041397057301e-02,2.279432402557060033e-01,7.074538844655853254e-02,-3.485751515115160792e-01,1.762590977637876755e-01,-2.446586695336618877e-01,-3.442915579495084977e-01,1.681665562810417125e-01,-3.326809981996592391e-02,-4.439461470813859112e-01,-8.975275615243394345e-01,-1.000740998167271023e-01,-5.236077434498491723e-01,-5.814197714189628385e-02,-7.934197202183226327e-01,-4.927904047957814004e-01,9.852941330871847203e-01,-9.064415469484672361e-01,-4.553397739926074994e-01,4.089469225673272312e-01,6.321610084415201225e-01,8.007712204673156364e-01,-4.687078205161683275e-01,-3.175623563448206621e-01,1.864310099920365449e-01,-9.388251890243282105e-01,-9.196536957011536284e-01,8.918865282421137852e-01,3.166902492758252308e-01,-4.679293485848110556e-01,-4.722925419659522728e-01,-8.433687247290651001e-01,-6.596586914219100262e-01,-9.116346788039368931e-01,-7.987444041711424525e-01,-4.217734130742845089e-02,5.287933796926480579e-01,-8.210015844558227194e-02,-4.870407770886788779e-01,2.489381439111513217e-01,-6.432298414224333349e-01,-1.208678265473481783e-01,4.960150018494728918e-01,7.986802118146767437e-01,-7.740702026609249664e-01,1.976210241773772580e-01,1.958322625145962892e-01,-2.180303487888597402e-01,5.457014192572329225e-01,-6.118245854865207445e-01,-1.545500131708723579e-01,8.284309550746749018e-01,-6.180809912979570164e-01,5.845928901737833527e-01,5.990810999361437794e-01,-6.488372614383832726e-01,2.210024757336157553e-01,-8.332388754444561840e-01,7.024800173324790009e-01,-3.423670259740714261e-01,-4.673585264009905149e-01,1.543785440608895776e-01,-6.313969689370915184e-01,1.195956672270626076e-01,-6.910699149936672114e-01,1.653022498173599697e-01,-3.750417814351525436e-01,9.298166521366380000e-01,-4.465874923391672802e-01,3.920998136045652505e-01,1.973192388735152125e-01,-8.648076253575613936e-01,2.797236746765123794e-01,-1.155094357759629542e-01,4.239277713853280005e-01,-3.469126953662913238e-01,7.457570131801321001e-01,-3.770340676995604934e-01,7.073955224406236475e-02
-1.959865000827580861e-01,-5.085203356530887397e-01,7.849330526638143013e-01,-5.439138561671124084e-01,5.094912838369249908e-01,-3.904299242825213234e-01,4.228361709483021702e-01,-5.817015669933081057e-01,9.383246631027704066e-01,-9.443390327873399936e-01,2.470422365273525767e-01,-2.218658975498406516e-01,-8.417580767179322354e-01,-9.621286674051627852e-01,-9.572636168710002558e-01,9.717076723389819204e-01,-3.325714033355855470e-01,-7.038042180460435393e-01,9.859755456537058205e-01,-4.043334902392801133e-01,-9.729165279890117368e-02,-6.351510364134884679e-01,7.822956173661501644e-01,2.547652840919956141e-02,-9.004318333584795386e-01,5.759777468267142098e-01,9.012152949580582995e-01,-5.681260928126907750e-02,9.076378615433444708e-02,3.531636488915657068e-02,4.966491575404721193e-01,9.506708489999160516e-01,1.185457304961208269e-01,-3.709403056725146808e-01,7.165865213746183127e-01,-5.242427379812775179e-01,-3.157572093066574048e-01,3.233503906226968816e-01,5.896644570578446487e-01,-9.767692761757380548e-01,8.051392814731024306e-01,5.905273767762213577e-01,8.363687377533581824e-01,3.443236962556457392e-01,-1.203642627411269928e-01,7.716646711353534194e-01,-4.194877893188144746e-01,-5.697156294300171897e-01,-5.105258477725198585e-01,-4.763143148847959196e-03,7.531467473605635288e-01,-6.140894139075723235e-01,-2.657647731524988011e-01,4.930146460411442000e-01,2.054434952634902611e-01,4.495501188980517426e-01,-3.260293137711813838e-01,1.288029003138391193e-01,1.630352756111603796e-01,-4.910429372682179050e-01,-4.043541604577525206e-01,-6.694508371282217318e-01,5.463834252887438403e-01,-2.143112388159007509e-02,-3.836099831778077007e-01,5.348450720632227373e-01,-4.562344370875139887e-01,2.492945867664717596e-01,-6.476164743954473391e-01,-3.339904806402829163e-01,-9.778912829559938125e-02,8.389890078710138255e-01,3.856657271331422887e-01,-9.965008646221049649e-01,-1.959055720450271210e-01,4.798636974315835246e-01,-2.013058103333897897e-01,-5.800430791064929981e-01,-9.470575593984960072e-01,-9.246732351183863940e-01,7.580660666472722742e-01,7.386266307066109427e-01,9.617231513252313402e-01,2.019792730372604872e-01,8.577387545686143699e-01,-8.630850301906356492e-02,6.789481576569189603e-01,-7.528750596610556123e-02,7.920124027805421907e-01,-4.354081533769083023e-01,-1.957799989564483756e-01,3.094566640790936685e-01,5.115579128181424462e-01,3.277720621507504983e-01,6.951758623248220914e-01,5.343296606774872171e-01,-3.903636790253990352e-01,2.904103739190253552e-01,-6.105264681380742076e-01,-8.416699757868009169e-01
3.027397410254157872e-01,-2.102992196032111849e-01,2.373769016454134739e-01,-4.025068148995472050e-01,3.523256590009771205e-01,-7.557559235213653359e-01,7.820721856235279823e-01,-7.670670414625178068e-01,-6.853874362838423551e-01,6.690460621491396420e-01,-9.389480787411845775e-01,9.406725307866057317e-01,-4.276806202344851648e-02,1.621129721765597331e-01,-6.297338264253693474e-02,1.805840548470132312e-01,2.487714031586885088e-01,-3.862047610321783786e-01,9.888074548625813698e-01,9.717004522130607835e-01,-3.244404317749023381e-01,8.406746768636677025e-01,-9.484734566460808480e-01,1.574137109403190848e-01,6.587462440088376336e-01,6.607104982481699640e-01,-9.534082428116086305e-01,-7.989188602472694356e-01,-1.055962139353217033e-02,3.214091857714802547e-01,9.608481865080247264e-01,-7.610941044220487228e-02,-8.833697975465426566e-01,9.574264279165674019e-01,-8.959497958965740860e-01,-2.544284928128404122e-01,1.079446038673226305e-02,-5.961661201686889733e-01,5.120070909821661242e-01,9.115973421233789509e-01,5.471455171908361503e-01,9.550141129042621913e-03,-7.871286480335044633e-01,-9.721740085057950509e-01,-4.905931003455166195e-01,6.748998389349831761e-01,-7.990011014994935490e-01,4.297720701959131251e-01,6.942316029344515194e-01,8.985071368416812643e-01,4.649203350361830189e-02,3.877369999544535428e-01,-6.716965542563069214e-02,3.955181109880450130e-01,-5.940408311753144766e-01,5.604284337347453793e-02,-8.187909420645933523e-01,6.951675014292331145e-01,4.914567053929854712e-01,7.490051837929823098e-01,-5.416567687521820496e-01,-4.679891600665619933e-01,1.783492437464846425e-01,-3.395506849666987126e-01,3.887106068687389282e-01,-9.835055440379028013e-01,-7.503808001966387753e-01,8.104143094066720288e-01,-1.787088111548598146e-01,8.967440499530989761e-01,-1.872326659227609991e-01,5.674189926094130865e-01,-9.711890579645365840e-01,-1.826875763375499506e-01,5.317032650383717307e-01,-3.291861666181192803e-01,-6.476912382615083175e-01,7.453786416768868328e-01,-3.572583793788552953e-03,7.554258680636356527e-01,3.064699901332685883e-01,-3.218335919460380001e-01,-6.470796078882923297e-02,-1.817182225010209873e-01,8.006929252827565957e-01,-6.421271891972937240e-01,1.296791176096521170e-01,4.916759006431981049e-01,6.119647951669182628e-01,2.860866512588915445e-01,6.195613978668208510e-01,7.722272200748470095e-01,2.160470166735786179e-01,2.436402656131897437e-02,6.046069933315025846e-01,9.660090820571918258e-01,-1.515609809468376756e-01,5.327311468987669940e-01,3.200177895530629257e-01,-5.083008350110764795e-01
2.254586216782601404e-01,5.625797375303469572e-01,-3.205406970091748686e-01,-3.160514449038149820e-01,5.152034448788678223e-01,-3.857839013747224044e-01,-3.275593669319465384e-02,-9.284342416329594005e-01,-2.426225774158874415e-02,5.235975254764846376e-01,5.386554768565192663e-01,-7.856080157657907570e-02,1.882087715802545080e-01,4.707447859953288738e-01,5.702895543462838113e-02,-3.296005326093758292e-01,-3.433923167423953426e-01,5.029226120349594709e-02,2.471295419154861950e-01,-3.087804867980292745e-01,-1.035156950846198853e-01,2.726625313596908740e-01,4.121927333161041762e-01,7.147738510339418649e-01,-7.483334197896160944e-01,-1.891800586157370567e-01,-2.089770199962373010e-01,4.290010890229785101e-01,4.221957126101267832e-01,4.942061997971316512e-01,-8.955462483917628891e-01,-4.784461297584965411e-01,-8.689884843167394735e-02,-9.055070915652765340e-01,-7.466090736557773333e-01,4.679358568987184164e-01,8.512472901917607082e-01,-4.493912780838977827e-01,-7.551277463479717511e-01,8.581790200226573351e-01,-6.343469290107073277e-01,-3.267946979595910406e-01,4.467400802747929500e-01,1.417676660070705807e-01,-9.318870123490528012e-01,-6.023416083807286991e-01,2.336424945240929141e-01,9.164649544495049316e-01,9.097965414725301958e-01,5.602475907276065481e-01,5.428480018405332785e-01,8.836746795231102958e-01,6.110195827810624980e-01,-9.480942999203409993e-01,8.688067588955874498e-01,4.427975281620621928e-01,-4.477087836085085204e-01,-7.214567005053789117e-01,-8.823219506036719118e-01,2.866285384084343857e-01,-6.012979366574724427e-01,-5.067792649710092245e-01,3.397469749068338096e-01,1.697508949990171878e-01,8.373021287251860567e-01,-1.893647832444260715e-01,-8.075177609782218102e-01,7.220070976930914597e-01,-3.047083992718071510e-01,-4.330719318784406191e-01,-2.546414323776913236e-01,-2.327551162398000528e-01,1.862644507461674870e-01,-5.011949169915606017e-01,-3.823013926483831426e-02,-7.854040991667976535e-02,5.378770479183931918e-01,-8.314992891626222793e-01,5.018243611291213213e-01,3.067254003764927628e-01,9.972362122626567960e-01,1.616867647598094759e-01,-6.999234634413202816e-01,-5.357770633961180806e-01,-7.148569026436613072e-01,1.337740443682018388e-01,-5.228076320894317064e-01,-1.682983721882895800e-01,3.632474975320547639e-01,-8.634776874067280339e-01,-1.923196928309223175e-01,4.840900485905068606e-01,-3.367344318859148977e-01,3.393610268175477618e-01,9.445401440738383503e-01,-8.575751726883695802e-02,4.303754741294505415e-01,-8.105070562609577589e-01,-9.955977068160806187e-01,1.018560791848628355e-01
9.545744043594939221e-01,-9.817110198022021006e-01,6.920067832977212507e-01,-8.231279405898754842e-01,-6.561711932612250830e-01,-2.274728102995948742e-01,3.468261674083394919e-01,3.988442125577633668e-01,7.562710762325648428e-01,-9.207245967017589905e-01,6.657338316059706607e-01,-8.181497216552926499e-01,4.452682185717315999e-01,2.977032745539553993e-01,-1.093734120396023801e-01,-6.715791208378305566e-01,7.488458519654208612e-01,-4.194111215946705329e-02,-1.920912728944581538e-01,1.036691558980924466e-01,1.450291675979817896e-01,-6.753296524380489885e-01,-1.068631886201638626e-01,-1.124781819487885581e-01,9.177327693958412524e-01,-4.151327108846416536e-01,-8.701081129128542813e-01,5.203263856688311595e-01,4.076391275452251328e-01,-4.475440793928553429e-01,5.105799517893689909e-01,-1.311193507042669459e-01,5.315419366495175435e-01,-7.220880822610713512e-01,-7.322260088767291730e-01,-3.880784613155467966e-01,-3.567613850209938597e-01,5.751930235031363914e-01,-2.557480538931196090e-01,8.301156128908058207e-01,1.134614801985536214e-01,-4.916093528167135851e-01,-7.722501887662194253e-01,5.196332514394814694e-01,8.177546529636077199e-01,5.473729616077749327e-01,-9.728440454130893311e-01,7.091852431299394688e-01,-5.144462108578014004e-01,-5.829811924607335438e-01,5.186978556990342604e-01,5.142424897584039201e-01,-8.300868294851793117e-02,-8.066601355117255512e-01,1.712687398070080746e-01,-2.723409464507595690e-01,1.875160487564870859e-01,-3.717755606230008780e-01,6.281208051532625181e-01,3.240598528457150351e-01,4.342480822564782628e-01,7.648924217045387497e-01,3.375669011754123261e-03,5.525218152652970893e-01,-3.321352741273340126e-01,2.792753806968455432e-01,8.881325644165207756e-01,2.640571935382363122e-02,-8.927953696013735119e-02,-3.557941203265932995e-01,-7.149592695882127646e-01,-9.066430687850068892e-03,2.531320563266625800e-01,-7.147095324427985563e-01,-2.949427275828684358e-01,-7.858746239734353267e-01,9.621343960235075876e-01,7.346520216654375268e-01,-6.615834903014370383e-01,9.721840831950825379e-01,-2.801944365526498615e-01,3.574128702773635702e-01,6.932437100769479610e-01,2.192434387937725049e-01,-9.968931436877512819e-01,5.201142974129684404e-01,-2.764483143124878417e-01,6.910023399416798107e-01,6.511262302059954710e-01,1.396921482504815959e-01,2.448353413159041203e-01,-9.023703997657417375e-02,3.807444378891458037e-01,8.824484057262254044e-01,5.639835812293958472e-01,7.052607910339447894e-01,-9.862795081279536191e-01,-3.863861467590923304e-02,8.729939427052038070e-01,2.823165403655836236e-02
-4.014061494033582811e-02,6.228113941693247391e-02,3.735932712568525993e-01,9.493633732830464300e-01,1.367725650066242693e-01,8.660177494314780233e-01,3.737086813625551951e-01,8.082389737857931244e-02,-3.609857473642037462e-01,3.393335414597384858e-01,-9.402583730377038762e-01,1.922426136603740954e-01,7.675895649138857468e-01,-9.517278863640359354e-01,5.151864461549089391e-01,-4.927707344790088761e-02,4.610570732642746972e-01,1.207399583383010899e-01,4.841744445378406425e-01,3.235757877751310740e-01,6.446897806089859628e-01,4.801049024844037394e-01,1.661730122653086728e-01,3.539768816656707617e-01,-1.760733702593493266e-01,-9.207997481999430356e-01,6.153194286038947691e-01,9.097060052768071170e-01,1.657595261208366644e-02,7.343195614512274538e-01,3.509826889745157885e-01,-8.492556316440438291e-01,-4.265970429015966126e-01,-5.334429477454087909e-01,-2.315345216795228200e-01,3.972537263494018145e-01,3.799304973384762807e-01,-2.586069776530570685e-01,8.767959017363244900e-01,-7.234162252462783549e-01,-3.936429659589333330e-01,6.812295782793049703e-01,5.601546227296356761e-01,-4.780578475561458873e-03,-4.898255462132501403e-01,-4.263604427615170778e-01,-7.054520491563363027e-01,7.329876683496605594e-03,4.557371159468877053e-01,-8.257565304847971355e-01,8.349495537943332213e-01,-9.642160640074948219e-02,-2.438478170418914015e-01,9.245920256208641774e-01,-6.750487223133418979e-01,3.887964653570510354e-01,-2.124897726169683310e-02,5.837754511767019316e-01,6.757476900436476530e-01,-9.004200798369039749e-01,-8.137918732544964229e-01,-5.123734136803295147e-01,-2.995600840349144089e-01,-5.149381463503945877e-01,6.452684983878631542e-03,-4.649273375093463390e-01,1.839244784955784695e-03,-2.154732780312151874e-02,2.495827515665414165e-01,-9.054375201008733054e-01,-3.287215808075991674e-01,-4.473896804098451696e-01,1.748222377835044750e-01,-7.426680423419513843e-01,3.588268179063354157e-01,-4.313729481528063570e-01,8.903588992085424980e-01,-8.555815003759748016e-02,5.220404031202598993e-01,5.482443863247610238e-02,8.458893557579008071e-01,-6.437729077827589741e-01,2.376933617525323061e-01,6.630294354062287177e-01,5.596586024195724374e-01,8.141216979741825455e-01,-2.030958152239745740e-01,6.771903099252618574e-02,-7.796545469148141727e-01,3.429592956868148246e-01,-2.644283604357586803e-01,-6.964634581169377725e-01,-2.562441378115469792e-01,-7.724854929663549363e-02,8.724835683759200045e-01,1.406374367200879938e-01,-9.367786937557862625e-01,3.708197065840936890e-01,1.989589900827195557e-01,5.108045941148042779e-02
-5.809356585637619474e-01,-2.213523269012849237e-01,6.365176613610028511e-01,-2.742673333382390499e-01,8.797200466574688349e-01,-3.267770758015975385e-01,1.445278548004449437e-01,-9.611910392119571434e-02,-8.557128800009126124e-01,-4.137393629903096670e-01,-4.898018624157436385e-01,4.578689605462940015e-01,2.920850855620542585e-01,-8.052727097339946738e-01,-7.175401869336355265e-01,3.523707150333270643e-01,-5.855705421680146294e-02,-4.141569170173209358e-02,-1.934300404528641604e-01,-5.375848476131972475e-02,-1.604308590213276986e-02,-9.971900702691014473e-01,9.077050445875698426e-01,4.810889764403913915e-02,-2.163234911443319142e-01,-4.500256668104463120e-01,-7.570503214990971230e-01,8.751606989317695096e-02,9.273238733074218310e-01,3.979190287722447206e-01,-9.801379908435821076e-01,6.891868131899783201e-01,5.336180430047492429e-01,-1.443556484983674615e-01,8.353293700612205441e-01,-4.053867189799365001e-01,5.329604965293208707e-01,-8.994346401659081280e-03,-5.768780294918520735e-01,-9.982422385324398739e-01,-7.043243793015512288e-01,-7.143804952525727447e-01,7.102766999958303185e-01,5.153948449863225978e-01,2.194730805628386516e-01,-6.102260025939476584e-01,-7.617117572375617929e-01,6.334356758440771173e-01,3.605378353951511627e-01,2.089133096663982059e-01,4.591331946363192973e-01,-6.942858280274410987e-04,-4.353777641245022423e-01,-3.867882574620484792e-01,6.057573325273013509e-01,8.117365498134776480e-02,-4.938756494254226137e-01,-5.219143288537622105e-01,3.069924911079735530e-01,-9.637048485820542965e-02,-3.009073059061282418e-01,-8.938062521261747051e-01,-3.465913266974696150e-01,4.133485917844916813e-01,3.118219039803800108e-01,2.969269372401750484e-01,7.329307852178912341e-02,3.721887165918207341e-01,2.055646594990911957e-01,1.424017304771814096e-01,5.641526922790176535e-01,-6.904133739626538979e-01,-2.362844074626235802e-02,-3.675258319867658052e-01,-8.255232459920383015e-01,-4.214819058460739232e-01,-3.043273258428769168e-01,-3.791506118830030303e-01,-6.609450473312024066e-01,9.036837296082957938e-01,-5.001317494063484137e-01,9.991392064811857043e-01,-8.624181558496142319e-01,6.655979181588078664e-01,2.451220911809852687e-01,-8.137822796672788961e-01,-5.532157645230295628e-03,-7.902430822595325477e-01,2.271316347340004427e-01,-9.105800247500772659e-01,2.984811273725562764e-02,5.196849387351794025e-01,4.502756253778275042e-01,-8.545207151630529463e-01,3.545519120204527752e-01,-1.289769453536533383e-01,-9.586801320860478537e-01,7.317116528555636101e-01,-8.859935062788479865e-01,-6.877996421651906278e-01
-7.480372993079613675e-01,9.480659985654884547e-01,-6.675169543859020838e-01,-6.334298882680757803e-01,-5.612860088591242747e-01,7.418517555887240711e-01,9.178947916433659593e-01,3.605150824696070622e-01,-5.239999239875086090e-01,7.904230804882039774e-01,2.600803839117231675e-01,-1.716580828444667084e-01,-6.006668936967263228e-02,-5.614388114051314105e-01,-4.987172499725576191e-01,6.860930063274137680e-01,-5.497073478741945074e-01,-1.995913446949790782e-01,3.601501590533362496e-01,5.927796861199332579e-01,-3.715272224695751468e-01,4.663857438610605755e-01,-3.506728759196899858e-01,-6.084620629902186550e-01,-2.904720847626152125e-01,2.406758722534958483e-01,3.394200404262019966e-01,4.654959824218212194e-01,-3.913991902051472405e-01,-4.126351018781309055e-01,-4.802648504625366410e-01,-8.734141365044836292e-01,9.910814685356645892e-01,7.988406199216324666e-01,9.583693638401040715e-01,-7.281501907396290552e-01,3.469674206192439048e-01,-5.886439121344837488e-01,-5.516834629050959560e-01,-2.680581126690761984e-02,-9.264711808081058653e-01,7.456429590078110792e-01,-5.326699277617099604e-01,3.612994227322441354e-01,7.237591793651159122e-01,5.388924358130591230e-01,-5.890218050095901159e-01,1.972371863639033052e-02,6.299197870447392766e-01,5.998580609980799228e-01,5.868225467452334865e-01,-6.736772645076016808e-02,-4.563404252004932271e-01,7.155403812564127275e-01,2.419690602446460392e-01,-8.652346460737387890e-01,9.260624286843410768e-01,-3.884153676875348182e-01,1.665821379769691912e-01,-4.848521568465566922e-01,8.210558363043585217e-02,-6.336503301911953212e-01,1.117850831073545770e-01,9.397779622600743732e-01,2.623075195871533705e-01,-8.955926902172430815e-01,5.193863546378141294e-01,5.269326213910430212e-01,8.300011713226873589e-02,5.427768455990154006e-01,5.868104516495868950e-01,8.755496992393367872e-01,-6.098811645167994122e-01,3.109286707285467966e-01,2.173920417231811619e-02,8.573949847588016038e-01,-1.304838447011391622e-01,-8.640465744764418421e-01,-9.864247753242587624e-01,-4.268191170933415268e-01,-4.425805169973155984e-01,3.593496131282878370e-01,9.682977721864876042e-01,8.242211007911530718e-01,-3.787973104467137198e-01,7.563717223715016313e-01,3.990735627607453484e-01,6.324741209200579473e-01,-1.996332571567782654e-01,6.571101413184909923e-01,7.541586634546806334e-01,-4.420328965210902350e-01,2.857897315556101603e-01,-2.628167104987650937e-01,-1.155843360925037366e-01,-1.366065191635992271e-01,-3.941525446630400609e-02,-1.202468512647945076e-01,8.609555965742738959e-01,-5.097627829292226131e-01
5.386986269785287718e-02,5.694651778674568732e-01,-1.784351489041304806e-01,-5.191121457607583700e-02,4.665031151865690617e-01,-1.391463904138967589e-01,-6.518234707527856830e-01,-5.121494265294341819e-01,6.431375789752136196e-01,2.664820612610543371e-01,-9.696527458800334731e-01,-9.119976163698222393e-01,7.871727843481053366e-01,-4.361638541671084557e-01,-3.018829289797464455e-01,2.512624765657587300e-01,9.184451671660580629e-01,-2.141569699024781226e-01,4.652253807290569476e-01,4.950003480232996189e-01,5.168790756715964108e-01,-6.712037898602412067e-01,1.679671544563943186e-02,7.849286936875943255e-02,-6.705678432685535650e-01,3.573142304689800319e-01,2.502865923893513589e-01,-3.845779529522785900e-01,6.435550164231584880e-01,-4.742968268145921762e-01,4.126921676164125863e-01,-4.487443094770706686e-01,-6.762086656269177265e-01,-8.460630301960754274e-01,-7.949255250262290406e-01,1.290543179942771346e-01,2.307198669507086741e-01,-6.772698114718123108e-01,1.004387097716168409e-01,-7.010366589748029398e-02,-8.451170431774530645e-01,-4.118372856115246616e-01,-9.583060536343894764e-01,8.815725883259828422e-02,-2.471798934061137931e-01,-8.605906810140004914e-01,-6.329830514950041120e-01,7.989593396505894063e-01,7.277669027080744257e-01,-6.004590404617591304e-01,-5.069700188028489762e-01,-1.047289797451784743e-01,-2.348493731767642423e-01,-9.975087550851291507e-01,2.830926414934102908e-01,-6.393962366201944025e-01,-9.000207037395309140e-01,-9.181614444773504857e-01,7.107002250570824131e-01,-9.794204512345314750e-01,-3.354887267378738880e-01,-9.445987240667508278e-01,-7.014918039150797036e-01,-3.964065179866413935e-01,1.869816943486588556e-01,5.119898054777942686e-01,7.257619769071463889e-01,-4.962865523053989758e-01,7.154405557978260610e-01,-6.995873843138757930e-01,6.671686477717380104e-01,-8.978072904378542329e-01,9.962157429896998373e-01,-2.346754062750704417e-01,3.749386264603451480e-01,3.955686192880885077e-01,1.297953929937119000e-01,3.723645856036439383e-02,6.057300415466211341e-01,-4.002528679835681835e-02,2.513671765580118844e-01,7.609597476124738691e-01,-9.267084874504034619e-01,5.367431186428066603e-01,4.211418704705627292e-01,-2.785680833100476761e-01,-6.508339321393030730e-02,5.456308682929233989e-01,5.101814848243260148e-01,-9.899865759210970673e-01,1.314920732937903125e-01,-4.573861053822758649e-02,-7.130078270924156136e-01,8.840245159318493862e-02,6.639446383343261537e-01,-2.189402080633051639e-01,3.570427685731438761e-01,7.726241432630218675e-01,-6.959821187016681510e-01,5.454120634355845709e-01
8.914474337448836661e-01,2.151658095028419204e-02,-7.039482956412945747e-01,-2.273688338956829647e-01,4.926786014205859487e-01,6.022171298615133228e-01,3.834293575180569569e-01,-4.150442588471303651e-02,-3.140453664383313637e-03,4.282502999405461974e-01,1.474932439874199197e-02,2.228477368204375697e-01,1.293430197159384232e-01,9.194812587701717277e-02,-9.943975152528252703e-01,-7.532256022571466314e-01,-4.577769444161330359e-01,-8.275292092501427277e-01,2.800753706093506157e-01,6.301743105359096653e-01,-6.443966785522003970e-01,-4.620932271117705881e-02,8.254529773837055995e-01,-9.951061351873635719e-01,4.303841456696648748e-01,-3.610104330133796502e-01,-8.715129659630640457e-01,-6.830901006951406451e-01,8.298986021323804252e-01,-4.519723965011901434e-02,-9.405739356518623140e-01,-8.471289228348033440e-02,7.273610305668671838e-01,-7.276685959834714446e-01,-4.348438548912674229e-01,2.827819420287387420e-01,-9.424301024878347643e-01,5.294943483624134917e-01,-2.694332331772306688e-01,8.147184130987827899e-01,-7.221612550648599527e-01,-8.481614929572651729e-01,-3.043539194894491207e-01,9.899639301287106452e-01,2.539246850736325278e-01,3.324614539028647453e-01,9.267045304365684188e-01,6.614259108652047470e-01,-3.189671234906166220e-02,8.671369822868413291e-01,-9.551034182743634027e-02,-1.439865230626424797e-02,9.902032138643683812e-01,-7.066765984800458256e-01,8.278898179540443714e-01,7.447827770706634265e-01,-1.918303987822078671e-01,6.465303494811269758e-02,8.697143991151685682e-01,7.703972806587371380e-01,6.408835797278698010e-01,1.154395880510181716e-01,4.048912362955783273e-01,-8.452626786605785814e-01,1.882659621920610427e-01,3.131990225961842622e-01,4.556522655620964812e-01,1.725611833191487143e-02,9.707556804361316960e-01,3.676982713820435844e-01,-8.390180892326601914e-01,-1.090299588210865700e-01,-4.147772610162254736e-01,-1.266261729903372935e-01,4.523321050132522725e-01,-1.624487235243901040e-01,4.407451919959222142e-01,7.442954209159529100e-01,-5.880199242612431654e-01,-1.785463626114358604e-01,6.983355828770878571e-01,-3.920388480532970288e-01,5.430912794854187986e-01,-3.252202809129078886e-01,6.997202124586325844e-01,-6.449784018604325375e-01,-3.208636847195434072e-02,-9.774251399316340461e-01,-3.447128107064307834e-01,4.443890168346822378e-01,1.354771123394720167e-01,5.467714694414225196e-01,-4.693007520328424942e-01,4.482689531671437688e-01,5.265284294684375865e-01,-6.718856351245510172e-01,2.311265702771985175e-01,-7.565773733104341758e-01,-1.475383724924534956e-01,6.003988410842882040e-01
-7.813223475787780536e-01,-4.527892996194686770e-01,3.291664547989088252e-01,-5.361909350707028121e-01,2.843039266982712032e-01,-3.997422381098534316e-01,8.127501905881475697e-01,4.403006516295999706e-01,5.052745655175607808e-01,6.205076492636520946e-01,-2.546693239717545687e-02,-3.848682273200787485e-01,2.454052253527134742e-01,1.605691965619227002e-01,2.780250787593496753e-02,5.536036579998460105e-01,-8.810627417604024458e-01,4.494217335120980206e-01,5.846055967144425658e-02,8.267876640037032931e-01,8.728156723106030856e-01,-5.654352321339490839e-01,7.054815793291917547e-01,5.970788653336220886e-01,-4.465830275658850823e-01,3.090739919737761632e-01,-2.200862549143369762e-01,-6.914692230593617595e-01,-4.907613502841590147e-02,-9.510293804704736953e-01,7.158284069663898297e-01,5.554829284924294175e-01,6.199379524866113211e-01,-5.012153199486530930e-01,1.484679859136304181e-01,9.675346707790044576e-01,-1.616151339538729470e-01,6.894702748796415204e-01,2.744741498867326879e-01,6.260685055949961608e-01,9.988807215556148034e-01,-4.746605735031830253e-01,-4.448568105682659812e-01,7.280691977244748703e-01,-1.240042683181179495e-01,5.669415252038647601e-01,-2.200313245276772633e-01,-9.541252509046618258e-01,9.997318958494221253e-01,-9.259917225558349507e-01,-9.599335950481791002e-03,-6.198293333746693889e-01,-7.776721252408373974e-01,2.438523812875830199e-01,-7.055986205034350256e-01,4.114194488687534790e-01,2.179634844860800502e-01,6.092869511684093631e-01,2.399566539113924257e-01,-7.979647090080999039e-01,-6.363268195059912369e-01,8.942092245261079597e-02,3.733233482084590271e-01,-4.951580115811999860e-01,-1.087326680230895626e-01,-4.252107180406452525e-01,2.754864474323319712e-01,-6.478271998827778155e-01,3.605203284071263337e-01,7.956306402151840373e-01,-8.185730174629692879e-01,-4.448296783046730152e-01,-4.539546569805994469e-01,-3.020673986938675615e-01,6.651118768135837467e-01,-5.550038729322315234e-01,8.118756875687429542e-01,-3.258437446980348984e-01,-1.805001995238009194e-01,-7.160716917101705992e-01,2.387588229892128044e-01,4.344691610160178463e-01,-1.206902262056104291e-01,5.468789457243254937e-01,8.447937941417389407e-01,-5.991993339939911678e-01,-6.574696630498866323e-01,-4.977715977041310413e-01,-1.497046372176220608e-01,-6.081739929471190464e-01,-9.730287932921937166e-01,-5.095830366255680310e-01,2.167023286322569131e-01,4.982842328324110781e-02,-2.970947444761933287e-01,-4.334936906572650628e-01,1.474770879272029322e-01,-5.975627226956237159e-02,8.452708074012800221e-01,-1.477656711893151620e-01
8.556315061113248799e-01,-4.316170202275368961e-01,3.135073108276027476e-01,8.882311579935335821e-01,4.729643088973192189e-01,-5.918984824032493819e-01,-4.654189428377386584e-02,-2.754029260831272197e-01,2.960716127556617394e-02,-9.244061836440440327e-01,1.668192871307723202e-01,8.881091194595303051e-02,-5.778734873800270844e-01,8.286322920713060647e-01,1.330024467484010042e-01,-4.378780419709780158e-01,5.454694769366188467e-01,-2.140059075938576250e-01,-3.013119481945003564e-01,-3.390863946390845207e-01,6.658312828682404483e-01,-9.782295570676788898e-01,-5.251823182138859458e-02,4.069513089196785671e-01,-1.351756895581757156e-01,-7.013092112812637779e-01,8.763710011728842453e-01,-5.574363273397791030e-01,9.984269445348765704e-01,-7.574189092334886464e-01,4.920024131841578274e-01,-9.545343735172462374e-02,8.012918175900825002e-01,-2.913236684503517360e-02,4.294816417831752720e-01,2.132548030990313315e-01,7.228549052322708057e-01,-6.661573391570319025e-01,-6.024574916896161536e-01,-9.003433006319521148e-01,-2.180156144394329587e-01,-9.839234910948875257e-01,9.708435940948545451e-02,-6.210309811084102627e-01,-7.378365471665582209e-01,5.378356856273336373e-01,1.557781668668001274e-01,5.410794973128509877e-01,-1.838605237635475564e-01,7.616885117213620937e-01,4.267105602879770476e-01,6.824298890248305938e-01,-7.580431746563562889e-01,-9.239802961533596370e-01,5.943028010645172721e-01,-4.529661070398600664e-01,-1.396430170501916646e-01,-9.557457710481545021e-01,-4.364348212727398035e-01,-8.293849804689981120e-01,-3.666260577940680943e-01,3.923814931313769350e-01,2.952638327684879993e-01,5.172226407629496592e-01,-7.942974320192839333e-01,7.120830207959631952e-01,7.815376952574744074e-01,-5.211572838855222933e-01,9.449326552973729143e-01,3.159239365695019064e-01,1.711645491403457342e-01,2.674984894370302513e-01,-9.197210441027916517e-01,3.070967192342652918e-01,-4.838655734805146214e-01,-6.331565937989995785e-01,5.458764214590077213e-01,-3.122377412276613473e-01,4.596949798679581534e-01,-5.105907311613024913e-01,2.944175206584875859e-02,9.917644102625160496e-01,4.042980434523819611e-01,-1.904634994352447652e-01,-5.965822766778083874e-02,5.864283026814720579e-01,2.629965695860332353e-01,4.782243602116855730e-01,-9.374905633380987702e-01,-7.750157101841610441e-01,-1.765104232225243042e-01,4.928590237182561840e-01,6.318364282138138055e-01,-7.912403719699185878e-01,7.338517318281216895e-01,9.254257012288664708e-01,-6.365966379878391646e-01,-8.677118105740386778e-01,-9.526993331860695857e-01,3.726954626069749477e-01
-9.833698152917331736e-01,6.610838571373456318e-03,-2.070040887206272551e-01,7.851599030112903499e-01,4.277616308704537129e-01,1.757534603430057629e-01,4.254941550768918113e-01,8.035650576022894676e-01,-8.517010290892357283e-01,8.043867575793299807e-01,5.362755527686946522e-04,-3.783095672279686017e-01,-2.731162588996702834e-01,-6.202971590757651033e-01,4.760324230764934050e-02,-1.350597378811047022e-03,6.582137828756664533e-01,5.051569973854845852e-01,-9.245459258195067864e-01,7.488094490453809371e-01,9.163049601136687983e-01,-7.264053789444224751e-01,3.593749896221030138e-01,-7.376022263668173817e-01,8.365989245411742381e-01,4.713977848147143934e-01,-3.347623196563631609e-01,6.852409857751009525e-01,-1.494566717467393779e-02,-3.769842694010283601e-02,8.875851135801222647e-01,1.901112253012979814e-01,8.358439590883381953e-01,-1.195140843238624573e-01,-6.916768100958690102e-01,-2.839673010808660969e-01,-8.584633620623312034e-01,5.534426712411153471e-01,-4.216484252726675486e-01,-3.280602381224178021e-01,-2.136051365836855176e-02,4.993283178104979125e-01,3.376311748822278247e-01,-9.022809815911936315e-01,4.747825319926926024e-01,-7.689295667951838720e-01,2.697181912612749421e-01,3.875975410888612416e-01,8.549144298440225498e-01,1.570285695062791920e-01,-5.785952678282786366e-01,-2.630345593478571331e-01,6.040031775013958715e-01,5.259536268414979343e-01,4.362743623309444096e-01,-9.367388004514487498e-01,-7.732969245537864023e-01,7.767346303401887475e-01,-7.403278174406957568e-01,-4.645818237097065762e-01,7.516863153631825334e-01,1.509801422737202525e-01,7.688831830048405980e-01,-3.776597233262941611e-01,8.630711840812415048e-01,-6.004854408204753913e-01,-9.171528385568141761e-01,-2.163687824414339822e-02,8.067367298732550651e-01,-5.003146686495429929e-01,6.344746177682658583e-02,-4.199179263806689377e-01,-7.262768543178057534e-01,1.515074496677388804e-01,-6.942403283743416864e-01,-5.305591703598175890e-01,-5.799746106664960266e-01,-7.967237814650611760e-01,4.882808809420533525e-01,9.248321050656285180e-01,6.133110825218990314e-02,-3.294518824007490743e-01,-4.273586664343684838e-01,7.848006865838610402e-01,4.657287582639264567e-01,6.839316585449752850e-01,4.396772119723200145e-01,-6.398565174255581578e-01,-8.934500804442326860e-01,2.760356069851830352e-01,8.051513146756368311e-01,8.419277081489464631e-01,3.118388067837660760e-01,3.780732233209063153e-01,-1.579255899077434133e-01,-9.077181171460324549e-02,-7.279905039530325528e-01,-3.682404675204580258e-01,-3.417605242715013869e-01,-6.318924633144673564e-02
-7.701408708910273404e-02,-9.087362294276108976e-01,7.363857250448060388e-01,-7.740701537395278109e-02,1.755832729962520933e-01,-5.425003513642663311e-01,-1.886574995150185341e-01,-1.887494632332067379e-01,4.207023833831049497e-01,5.814135217295479663e-02,4.015099331907090452e-02,-3.517472048619194602e-01,8.088994659093673434e-01,2.313596909261297352e-01,-4.383662955778317993e-01,7.505092501638335190e-01,1.394378909971116798e-02,-3.888430987290270036e-01,5.808231714046447891e-01,-9.038026558950493783e-01,-4.032638114781894600e-02,7.764592529751579431e-01,4.811218556957679304e-01,-6.018150589510262716e-01,6.513545075660733819e-01,-3.478688746565292700e-01,9.662172161005511128e-03,1.309640681278720908e-01,8.764677197353027971e-01,4.821896057260297574e-01,5.032523965777238040e-01,-6.338271912138773168e-01,7.787971681318546224e-01,5.081039504618900526e-01,1.452011828247981029e-01,4.965516296145999764e-01,-6.142121910975255616e-01,-2.574704355216237417e-01,4.773365606833470665e-01,-5.045776740356007206e-01,8.800966389132702794e-02,-1.066198823923780736e-01,7.383475895869286987e-01,3.547764875263055284e-01,1.602748892069716380e-01,-8.606082409924307175e-01,-4.813483861559029187e-01,-2.791935587410059316e-01,3.066615336606639541e-01,5.944956907976111093e-01,8.611035975339331738e-01,4.790813194835037425e-01,3.618084689814746735e-01,-8.251430440474931682e-01,-2.818819060204387217e-01,-8.426670211511426700e-01,-5.393609162006531843e-01,-5.044135142636081426e-01,-8.711895605112671692e-01,6.439725448717470435e-01,2.744549641876410373e-01,1.722645916058784810e-01,-9.979121241658808206e-01,8.194659477621502042e-01,-8.669935445455285716e-01,-2.811231847407591466e-01,8.502167739530508417e-01,4.048042640361075861e-01,-8.986706441118339495e-01,-5.344601499519416876e-01,-7.932725216560196912e-01,-4.240960742374522141e-02,-5.327160294080133252e-01,1.211094255376987672e-01,-5.096363619082702190e-01,-9.997974667173041841e-01,7.080273206452440959e-01,7.364137549936391469e-01,-7.752662543370458792e-01,7.003192031108351756e-01,5.759574290379010364e-01,-4.799870059678956746e-01,-4.792048900467205108e-01,-3.263963133042928622e-01,4.472968759408726402e-01,4.895914112057979661e-01,-7.570700952956772589e-01,9.841798036289357565e-01,8.555222867474625570e-01,-4.617071499043907679e-01,-8.723981865851189177e-01,5.195616181860254201e-01,-9.661323243247874615e-01,9.890543916464109575e-01,9.045051694814716381e-01,-1.231100391200001809e-01,2.276406903002494708e-01,4.781928314718699724e-01,2.418593470765133535e-01,-9.997909541607503670e-01
2.283345323706760244e-01,6.287223590726584987e-01,-5.452415427355847832e-01,8.723196835598221455e-01,4.287150957097358717e-01,6.864877467324252969e-01,-5.954150957844466241e-01,5.896762011779872470e-01,8.683182630881416397e-01,7.239818457410449604e-01,-3.547353670189172803e-01,-7.348098381745746810e-01,2.774542445074057451e-01,4.521491874653544851e-01,8.181345114997955470e-01,1.718769432512954332e-01,-7.908063649500036707e-01,-7.001362393998133982e-01,3.499956564637218825e-01,-1.324341081796962527e-01,5.123892492971795498e-01,-9.470513994682103753e-01,-5.092245199913640885e-01,4.925347655158991422e-01,-4.616428636675729003e-02,-3.154614895121483631e-01,-9.993446611618723718e-01,8.742548447942897205e-01,1.132518851274528782e-01,-6.541318045427213512e-01,-5.584706710046181133e-01,6.352232555708123840e-01,8.211905147548008710e-01,1.010007341068357434e-01,4.464919603619299515e-02,-4.898149002484692982e-01,9.875136832386122165e-01,-6.854289300206759528e-01,-6.151456092754870042e-02,-1.121093473691785469e-01,-4.189462655055804507e-01,-6.261201864828909169e-01,-7.860034047311019734e-01,9.046376653795573652e-02,4.464651008167301871e-01,9.081820603851611384e-01,1.869945903523433373e-01,-6.737987569524830356e-01,-5.318155631157177599e-01,-5.009148355720705048e-01,-9.265355025769281827e-01,9.249415709948587416e-01,1.664458372281305554e-01,5.034455725726769693e-01,3.073457812848481296e-01,7.692900404928604274e-01,-8.467501618801918095e-01,5.129442908835035730e-02,8.106840100844279196e-01,-4.673842684972688843e-01,7.007660685740533246e-01,5.233459594460896369e-01,1.074187599599880638e-01,-4.980965593390367374e-01,5.378964040721103679e-01,1.315934732027199683e-01,-1.093019744356182876e-01,5.176771846210161954e-01,-2.041549035847620708e-01,-5.940596061786447279e-01,-3.974806876466496774e-01,6.688894389395350082e-01,-9.746412749028239286e-01,-6.574526604517938466e-02,1.634373966555033864e-01,7.734621268756756152e-01,5.813441499007805380e-01,-7.369205431677987583e-01,-8.300939603863086713e-01,6.873468461973435417e-01,-8.393180216568341123e-01,-1.117581880302187525e-01,-6.750586654665866604e-01,7.051180856305339084e-01,2.156251343551303101e-01,-2.322049971228543619e-01,8.156917983731259980e-02,-2.432122764054629460e-01,2.484330335740607687e-01,2.157883945199214892e-01,8.243368301898281736e-01,3.259568514574544551e-01,-2.445832996676735593e-01,-8.276663843412854771e-01,-1.138781142909004451e-01,-1.245056463267109059e-01,-5.611677991650869668e-01,-4.650469325473809423e-01,8.287959775104167814e-01,7.255136198120581970e-01
7.881187082842897595e-01,7.255004395634565562e-01,-4.139816059548273586e-01,2.936622297994213593e-01,-4.595437317234729591e-02,-9.517172036435581628e-01,-6.801563564924284488e-01,6.817827558545674904e-02,-4.139802749389493997e-01,5.807250377033734701e-01,6.658558617538898883e-01,7.779729602034524127e-02,-6.033193756640684580e-01,-9.389003607963111175e-01,-8.774727862852165217e-01,-9.083130060956414731e-01,8.805420184680354811e-01,-4.290152596234464433e-01,-9.076514399780921671e-01,-8.081710397096741882e-01,-3.970859158359025809e-01,8.315849853929113689e-01,3.482427796830858124e-01,-3.678251049941339001e-01,6.508052915291218099e-03,6.068131076995406659e-01,3.934168230840398017e-01,-5.145654525388887457e-01,2.869779637681997286e-01,7.294129446638275560e-01,7.205071623317924612e-01,-3.615158648606509040e-02,2.273668659168313066e-01,-9.672584796121623807e-01,-2.623343327857516893e-01,5.232882327450774085e-01,8.545488054726035898e-01,-6.556868965189333043e-01,7.316378924313742260e-01,8.988917885344649417e-01,-5.904788980403636867e-01,3.442029190693325358e-01,7.965092597708698374e-01,-6.973953091544669025e-01,-1.298291031861651401e-01,-1.635812470321533763e-01,6.108706284440741374e-01,-3.771501609631822127e-02,2.645427657878740568e-02,1.919538379669250006e-01,6.820642559018874618e-01,2.969363798666937448e-01,-8.957545287995221095e-01,-5.764348597101538463e-01,3.370889369055094509e-01,4.523951953805736004e-01,-8.100758857334526830e-01,1.484544980823732097e-01,5.182022305628608549e-01,9.628502130436211726e-01,3.591239314073093603e-01,-2.518533092959420738e-01,-6.069622237816441057e-01,3.061542510028161246e-01,-8.056423153896776768e-01,2.921954294343940273e-01,-2.457386358421262962e-01,-9.332342964571416211e-02,-9.309982752470109535e-01,-3.096073578994424924e-01,2.455740067087834877e-01,5.164522409598961694e-01,-4.004819798913181739e-01,7.565035149442158602e-01,8.335524630822175318e-01,-6.696476440209824244e-01,-5.028845415155096532e-01,-9.621869485851395343e-01,-7.902720301714460938e-02,2.716646431689453411e-01,-2.497833102567366126e-01,-1.033053261977563420e-01,-5.318609882155456159e-01,8.533117375272765148e-01,2.812185071746142739e-02,-3.210371307871269231e-01,8.790730667756161409e-01,1.751279404753218749e-01,6.006990270517253983e-01,2.685136873160571813e-01,-1.568551000016176200e-01,-8.699144698652450103e-02,3.821557960416854804e-01,-9.134210427403905985e-01,-9.510342520633947583e-01,4.879847724622172755e-01,5.366112018362589886e-02,-7.035650677545368659e-01,-3.874471600917752667e-01,-4.201055882420994259e-01
-3.221207356795940946e-02,6.700884369687003517e-01,6.688928171645214249e-02,6.686770880721786270e-01,-4.218283573478385229e-01,9.070509841927063555e-01,8.912375759376818252e-01,7.407604040709563353e-01,6.977071659007847426e-01,4.728991063306053899e-01,8.797977424504916932e-01,-8.924652432238417976e-01,-6.457160228222571519e-01,8.309932110864794996e-01,-6.318731636628147630e-01,-1.038236472814801914e-02,1.143098786459706417e-02,3.944132644000062360e-01,8.695027572741309552e-01,-3.730550024782497420e-01,8.995396270127695715e-01,7.574693413778272877e-01,-8.887966110753620086e-02,-3.942097090395195735e-01,-1.586442504706691015e-01,9.778717779465537774e-01,1.757341802190126590e-01,-4.009033978903833173e-01,5.291943284358582300e-01,6.523027789398401222e-01,9.412311939824462570e-01,-2.735619016270494086e-01,8.323727310415387493e-01,-8.489643265055339949e-01,-9.299598871093388563e-01,-9.758780083617117906e-01,5.773801844769439473e-01,-3.701448478543964971e-01,3.275192192277864844e-01,7.962137085736811226e-01,4.860610115209280657e-01,8.022157852384101950e-01,8.722783331267021101e-01,-7.253159164277815929e-01,-9.543064200974027411e-01,2.092893745961581509e-01,5.960549121170637399e-01,1.065205163164280044e-01,-7.347644721825086211e-01,-4.476857472767101775e-01,1.063480222106867323e-01,2.090179113971635250e-01,-7.314983856498802339e-01,-4.365164434214598987e-01,-8.940764781864432020e-01,-3.658840544944805817e-01,-8.783937754807236153e-02,7.316442525903268379e-01,-7.275052337968479499e-02,-9.010785876595299726e-01,-9.613010507223385126e-01,8.647519062510196086e-01,7.530975990088633054e-01,3.368785651389509805e-01,2.452233909790406674e-01,-8.234719762767972462e-01,7.095263066592771839e-01,6.364896771707762024e-01,2.855245501303200761e-01,9.928453918144048984e-01,3.701021056127082876e-01,-3.976372512906194423e-01,2.808096686134398112e-01,-9.867987236630417769e-01,-9.813410423513511116e-01,-6.512697372228537507e-01,3.187674453115145745e-01,-3.985367705041280573e-01,5.114038585900151368e-01,3.109372366541365285e-01,-9.364972031853702195e-01,7.584664559211287127e-01,6.765451109520275175e-01,-4.479894648034232763e-01,3.546158798777201415e-01,4.768109143728203048e-01,-8.355039166143463092e-01,6.276211642703044546e-01,1.298734848653959606e-01,7.199842248561176827e-01,8.877514120600407121e-01,2.871770462703708837e-01,-2.901002525007694288e-01,-4.968170554235147307e-01,5.450548561250982971e-01,-8.954181628770123691e-01,-8.646567186823612694e-01,5.363975701796526163e-01,8.355712920044946479e-01,6.167249867180735201e-02
6.117375476500810372e-01,7.093695580190990668e-01,8.691693050054960512e-01,-5.879831180035455240e-01,2.287311059811092395e-01,6.789032474394549599e-01,6.346712906208933358e-01,-4.724600513915782063e-01,7.136945147784414800e-01,5.252613055508374984e-01,1.076289339106286658e-01,-5.844297484660514463e-01,-3.371945724242657594e-01,-8.300384618404017534e-01,-1.913806888002647089e-01,-4.642888185655014155e-01,1.320118553746436607e-01,5.543963426530444938e-01,1.289064619034752113e-02,3.713582981023371143e-01,-7.532557055645527910e-02,4.815944934233635788e-01,-5.052886855103619901e-01,-8.918994578737045043e-01,7.160300620302371133e-01,-7.336406545032385651e-01,1.192734414931804210e-01,-6.568244829152389830e-01,-1.636438683667065241e-01,6.749174919917790838e-01,-9.360369689466816467e-01,4.469623416239167923e-01,-9.755719504067035253e-01,-8.791134119460315421e-01,-3.338197626957650765e-01,-8.017656796865690882e-01,9.941497393794722637e-01,4.572610947471842380e-01,5.678199652698734390e-02,-7.381560014466981290e-01,-5.598658636507134467e-01,4.681438293172610621e-01,4.774620507824223203e-01,-5.025248780538040805e-01,2.097186668206241222e-03,3.940794336951478627e-01,-8.009757327534043903e-01,3.260288473399217679e-01,5.458743606923093239e-01,-3.530225876785204608e-01,-3.431024799861164265e-01,5.000559266677617742e-01,3.774988095520681597e-03,9.898532963729054224e-01,4.615282254683217289e-02,-9.104239315376663200e-01,-1.755918506058096185e-02,-2.306781147316778746e-01,4.234862712195175405e-02,-1.288436647778268274e-02,4.570208265865172148e-01,4.336934394208131760e-01,4.088486022336614845e-01,-5.320143563806367659e-02,-7.085375418018924343e-02,-8.208722209060370645e-02,-4.435787960510131356e-01,-2.996739218258281934e-01,-3.725404013784390234e-01,7.424773991515902782e-01,-8.476936876157332712e-01,-2.457046272823228961e-01,7.657440096011407515e-01,1.104291788761053716e-01,8.234756332010650937e-04,-6.190140219864554982e-01,2.558824080691479708e-02,2.224260902097079384e-01,-4.772976201930170248e-01,-7.091403726802814056e-01,-8.004921742434167875e-01,-3.124397406061791838e-01,-4.108039578246482915e-01,8.559114170115849074e-01,-6.049192000383571965e-01,-3.377038221226675851e-01,1.954635747989286187e-02,8.191397568393929962e-01,-5.057555661764334687e-01,8.293970605778115956e-01,-2.312158426005062051e-01,1.689569967933428618e-01,-5.385812666417983952e-01,2.756157061254360663e-01,1.296088406546320737e-01,5.644021575501483312e-01,6.461203152138530470e-01,-5.034508487658766462e-01,6.940382612087276915e-01,9.812085458507755487e-01
7.074485399813288389e-01,-9.883826024566595425e-01,6.586912334525798496e-01,4.091091163876026116e-01,-6.576663143397749600e-01,-1.173204292161760254e-01,7.072255735740096139e-01,9.515348897339455103e-01,-7.459957789709805720e-01,7.224941284021106913e-01,-5.250108049693764656e-01,6.098615715239030788e-01,4.241330323970862182e-01,-3.157418730025303155e-01,-1.423664698149558205e-01,-7.654846397169490224e-01,-6.983573492018846363e-01,-5.649235141491524281e-01,6.196976933027893431e-01,-6.470323936016961763e-01,-5.365374678969718758e-01,-4.883041939480547988e-02,-2.515339164947560935e-01,-2.624495103933039974e-01,8.990887106090548198e-01,9.869290653095534882e-01,-2.526636891311073718e-01,8.762051402055883731e-01,5.903927502696140195e-01,-1.995990148453641311e-03,1.159281194401862169e-01,2.827341242869987337e-01,4.135619491220166033e-02,3.177234533285220319e-01,7.027309323652375372e-01,2.121022686301743398e-02,5.255877466881586635e-01,-3.450659793721042590e-01,2.469540277825486019e-01,1.701997957007608253e-01,5.109887047904686508e-01,-3.793614182247333488e-01,6.067964050067073956e-01,-1.207963414477064568e-01,5.720741418717214533e-01,2.746773005703349035e-01,8.647573643718100556e-01,3.128730371658856590e-01,-3.860208432037215420e-01,-7.837909317534801357e-01,1.709858573512890167e-02,9.513224638376687192e-01,-5.952560582560821878e-01,-2.359764649428635064e-01,5.484525069462806712e-01,5.865418110549316388e-01,-2.708134412882818864e-01,7.985551188015680424e-01,-2.440920781981976706e-01,4.583929755144680041e-01,3.023723896397045863e-02,-2.065962904557667734e-01,-7.464548292184023381e-01,-3.206915830035406145e-03,-1.088893457136430598e-01,8.688343625138539306e-01,-9.183295774034918590e-01,7.092611549131118132e-01,4.490031521569817219e-01,4.521524714257818545e-02,-3.835319413159394841e-01,-8.247472166836993246e-01,-5.773102419437357025e-01,6.240074204837227079e-01,-9.700165455656968305e-01,-7.752278623184705175e-01,-8.024779142361473383e-01,4.944732701247516182e-01,2.035824653604965118e-01,1.313946564695707142e-01,9.212450248427261901e-01,-8.150549437997616220e-01,-2.618759543871962414e-01,-3.157509169965597717e-01,-8.684343786603343496e-01,3.097625074399239509e-01,-8.107509517844513347e-02,4.191793661497626999e-01,5.409085392031607320e-01,-8.446621506826414993e-01,-8.283633047910123892e-01,-3.144353817472345103e-01,8.426876255852082664e-01,-5.255207526748502112e-01,-4.321790385451327321e-01,-7.626726160224253093e-01,-4.832739510981547415e-01,-7.443726129656604851e-01,-9.136176000164084599e-01,3.108000048771166757e-01
9.265308228293547277e-01,4.496609202761709945e-01,1.742675621181748458e-01,-9.373211392039213496e-01,5.974414100164402441e-01,-5.475831490622971032e-01,5.912330319695189296e-01,-1.616060632496851834e-01,5.815119231809235956e-01,6.769280982301186800e-01,5.705147714597484931e-01,-9.335646848543583953e-01,-9.879679697341159361e-01,-1.946568379591788744e-01,5.783654410741001506e-02,-7.126587598594005257e-01,6.749345817717289364e-01,-7.412815559936085652e-01,4.396993270699107725e-01,6.230805139093240630e-01,-5.003943972173929833e-01,2.649021435118523726e-01,-1.709860012037811572e-01,2.096640735812813627e-01,5.718947182703735255e-01,-1.003991555095022914e-01,-9.476411863396858593e-01,2.705452633729210632e-02,7.263424948658518954e-01,1.169938683064528639e-01,-4.783740700379610633e-01,-5.140894619901537066e-01,-3.720182928138744405e-01,4.710627578859722941e-01,-6.163495585418976574e-02,-2.230629663854686306e-01,7.636062352729569014e-01,-7.566192905191388984e-01,8.116662927449356246e-01,-9.324120949447722850e-02,-4.623043305106300238e-02,-8.067877502805864687e-02,-9.553172319438292259e-01,1.597862612280054329e-01,-7.183963774929014168e-01,-9.584628562362860205e-01,9.162303443671298009e-01,-3.274747791917342887e-01,8.741121580167676708e-01,1.089220161519499630e-01,6.207527753919510616e-01,-7.147614263882762220e-01,6.025225356153562917e-01,-1.006216933464063601e-01,-1.416471927959774835e-01,4.585950659665631868e-01,2.144877797441715472e-01,-7.471358432413635065e-01,-7.042907948061705170e-02,-5.851306736620121018e-01,9.256862053052095085e-02,-9.463462565275562177e-01,-1.353187791150054498e-01,-7.958503611416074541e-01,-4.804329572543970528e-01,-2.331291716347112519e-01,5.327283880451612053e-01,9.772587376808725690e-01,9.386697131569523567e-01,-2.203267382175342348e-01,8.033186645697825146e-01,-1.946652771930343917e-01,9.756434164101355222e-01,4.962454548763195472e-01,-8.091939767741651579e-01,-2.619489128513214915e-01,5.733223434932028795e-01,2.289309840060005374e-01,2.243507656728278565e-01,-5.855921465972546702e-01,-5.695906312242757785e-01,-9.927800988164123819e-01,9.683351273258327119e-01,-4.239858628795056816e-01,-6.126066087542707539e-01,-8.484795877611364112e-01,-8.837249928139425670e-01,8.832239957690326548e-01,6.621925657212246463e-02,2.125348905145361122e-01,3.262159123261967331e-01,-4.586005145250804382e-01,-7.058927976800650761e-01,4.964812089092889291e-01,-7.776010768633268011e-01,-4.540123463086551681e-01,-3.775208349294216781e-01,-4.468667641155770198e-01,2.303558729358412549e-01,4.230499994223180238e-02
2.730009482289903477e-01,-7.820404655412238615e-01,-2.241211387493318163e-01,2.668868011331135826e-01,-1.351868995737743884e-01,6.593635174369871788e-01,8.730590401349542784e-01,-5.143697587638440538e-03,1.120757721310747801e-01,3.768072281363583631e-01,2.891045536702159247e-01,-3.199401584093868323e-01,4.424655289978796091e-02,5.788241225237444887e-01,-3.058599064137035306e-01,3.006282992292024225e-01,2.275129740321304439e-01,1.579084334305782544e-01,-2.482016771308368508e-01,-9.679765814791971845e-01,9.995113772236414729e-01,-2.041397623197824807e-01,-3.352351115137008897e-02,3.401719979446453657e-01,5.025753415016060988e-01,6.832439242283214753e-01,-6.057116806603819459e-01,7.865427316932165347e-01,1.591411086968950173e-01,3.499297663234488542e-01,-8.370604451136096635e-01,-5.801508348838553264e-01,6.530921889568164218e-03,-1.143827376751316294e-01,5.421090863258688497e-01,-9.421515378136247065e-02,-6.165362465300052719e-01,-2.970173023705902082e-01,8.186563028595355007e-01,5.449700495093634522e-01,-9.772900606563044157e-01,-4.201384401294872006e-02,-6.951364488757005855e-01,4.798955833031950391e-01,9.710054821761240351e-01,2.693919835384606110e-01,8.618288696312017549e-01,8.195594775067454041e-01,-7.668043914617415080e-01,9.345661075568183485e-01,7.378331673268911928e-01,-7.481997223386778195e-01,2.153212766727381489e-01,-2.550387734128112260e-01,-8.382542414024141131e-02,7.233029772407273406e-02,5.209672818464339272e-01,-7.158090521153697150e-01,-3.480023122037789740e-02,1.343186808942915533e-01,-1.220551585474862755e-01,7.335765410974259826e-01,3.061692904376389635e-02,4.439886134550721231e-01,-5.936206163584218931e-01,2.372724700864119463e-01,5.521809776199226860e-01,6.476369787803748501e-02,-6.694788626602536930e-01,8.490301207156940588e-01,-1.492211197927835187e-01,-3.304580042913638493e-01,-8.324940314365203431e-01,8.553264410792043027e-01,2.096378836561818559e-01,5.864755661131759723e-03,-1.559498288679361799e-01,8.240442218149488518e-01,-6.615348229204516262e-01,-8.417052375663940378e-01,-7.095662911193145739e-02,-7.532864409905128955e-01,8.920582869850635088e-01,1.651600284146881314e-01,7.626375891018879472e-01,-3.466062669376142047e-01,5.053122688917799366e-02,3.252913979861584703e-01,-5.423195080630389686e-01,2.728731389975436183e-01,2.225808304349858879e-01,-9.323048756425660333e-01,1.756909253546798944e-01,-8.087277643544310557e-02,-4.475127200371857850e-01,7.787939077624697060e-01,-9.197297685395289246e-01,-1.784970778059808971e-01,-5.056376599438301422e-01,-2.045538388003806940e-01
2.219884066848110127e-01,8.787695073076038366e-01,-8.008839444760518234e-02,7.480473317938800548e-01,2.430504814744669506e-01,3.040345441146925509e-01,-6.263076975021486525e-02,-1.361203093527734165e-01,9.877928499616157598e-01,-9.855001315493261416e-02,-6.022277484070821529e-01,-5.686629140001644434e-01,-8.780341547616041797e-01,-2.233828644809647823e-01,6.982916823554381480e-01,9.433512814358118170e-01,2.165799160175656546e-01,-6.226842634137335075e-01,2.101864405089188814e-01,2.374126532077580620e-01,-8.783682455910926112e-01,2.352765838101678053e-01,2.681254150697862659e-01,2.847109477023439528e-01,-7.819651356200818526e-02,-8.952140509988273376e-01,-5.774374586008699239e-01,8.355823838846070384e-01,3.675507049176625074e-01,-2.044985058098813813e-01,-8.685820096425727055e-01,-4.997812183180161405e-01,2.946229510017566167e-01,7.131406165068265857e-01,-9.843320984569581267e-01,-6.011316240507855735e-01,4.491816600600224696e-01,5.087141325511448375e-01,6.579930770368596082e-01,1.877596743267002655e-01,-4.379519867508232522e-01,5.829235165940804819e-01,-7.466894972595132796e-01,-3.965394752842477111e-01,9.783190501796872329e-01,1.281849808118533662e-01,-6.047061143675185324e-01,-9.771486342346387133e-01,4.705071998017356094e-01,-9.455830801687576948e-01,-2.818825008172543001e-02,-8.904239290700814990e-01,6.246413111766182524e-01,-6.473304164769440039e-01,8.230463290286449407e-01,-6.662141569662776153e-01,9.047279183176359929e-02,-1.302475078233518158e-01,-7.126505994126155485e-01,1.384326278678966737e-01,5.284964489509005325e-01,7.055804582443954143e-01,8.717920053663974489e-01,9.462112476916462178e-02,-5.041665873942444698e-01,-3.215073594725166295e-01,-2.206112940567186431e-01,-6.565875914671281954e-02,5.161915643606471704e-01,1.048133706888756400e-01,7.833527849617885064e-01,-2.783899401897513837e-01,-5.221580199507100950e-01,-6.981624719303023419e-01,-1.251665474710181858e-01,9.709351094130040938e-01,5.230245853097084119e-01,3.285057120152912180e-01,-8.624297012052382083e-01,6.311691659788731812e-01,-2.600254295210246980e-02,9.242827955657295647e-02,3.922377238316590020e-01,-3.549417428245533745e-01,-2.042136384666237703e-02,-3.089083311698610501e-01,-2.039601738595369085e-01,7.370297910963268251e-01,-9.056714424835310417e-02,-4.960261030785204639e-01,-7.294416753603762960e-01,1.505477574585856182e-02,5.140336308123145681e-01,-9.746723961117524926e-01,3.492128212505971607e-01,8.127904056791601661e-02,-1.376789082561418187e-01,-9.910455271774623043e-01,1.948829633660427163e-01,3.472867990640544633e-01
5.172559598856443230e-01,6.576576885188065713e-01,5.746287181094928975e-01,-3.241947576034898137e-01,-2.134058220327423872e-01,7.617019011332621936e-01,-3.371246755254886374e-02,-9.376095605970908853e-01,-5.374523713066550190e-01,-7.720031636536561770e-01,8.869491389855304053e-01,-6.784768363936315438e-01,-9.581267817627669992e-02,4.987926306311434299e-01,6.124781269221695190e-01,6.016616865842843165e-01,-4.996805303844371604e-01,-3.256640462031061833e-01,-8.903556204644424987e-01,1.972552194774050971e-01,1.445793700429232054e-01,7.746623835504766742e-01,7.861372071168390985e-01,7.300749965992319179e-01,-4.160736780293252668e-01,5.528074075017208600e-01,-8.297678662237915059e-01,5.282748268567543093e-01,7.862212976733584657e-01,7.188216442354347091e-01,-5.317109010347411679e-01,-8.501525499099940042e-01,5.781506044645334796e-03,4.588087119879378228e-01,-3.501736226610854263e-01,-6.243641337909886513e-01,-8.027504623219876567e-01,-7.712937670147550495e-01,6.162781858690002945e-01,7.155299260697904895e-01,-5.125776902001222268e-01,-4.962161903681783226e-01,-5.173364691067861010e-01,5.742353066206473677e-02,-1.799540730195512417e-01,7.650674449114918119e-01,-9.905370948227298911e-02,-1.505676350998683688e-01,-6.616181047935647541e-01,4.983513548066809129e-02,-1.638651552808543244e-01,-9.737257263868275281e-01,-9.158756032935473357e-01,4.594867658585082282e-01,-8.909697544875976316e-01,4.501878619041344010e-02,-4.653012851819817719e-01,5.221109939595376392e-01,3.024029109054682252e-02,9.660089987096931452e-01,9.126290271853916281e-01,8.969756828691868300e-01,1.342304509534875123e-01,-3.801572315596957186e-01,8.847561215543022772e-01,4.588804191990842885e-01,-5.427225731061922076e-01,1.293646737985745254e-01,-5.795921565012505106e-01,-6.051521286356544849e-01,-8.981398156421951384e-01,-3.077973058691965136e-01,-2.642492505739755249e-01,-3.068340582678485973e-01,6.356969873479476618e-01,-5.053939018458972754e-01,-6.737021077494245169e-01,5.375275626482372004e-01,-9.561988201905429197e-01,2.778251164465557199e-01,-6.300118932404410454e-01,-3.093658833341108583e-01,9.525079930367481573e-01,4.045441713828274999e-01,-9.466672282054020560e-01,6.034617973197893281e-01,2.961169204321338899e-01,-6.237584255611265949e-01,3.972638180601097968e-01,-1.484736493623164399e-01,9.830870616869933354e-01,9.464045392188591421e-03,-2.673424094297629505e-01,9.564175179986029729e-01,-1.260227431661853359e-02,2.651085845267282526e-01,1.698436778134038150e-01,7.527212195984518406e-01,8.369053007068718575e-01,-4.239860510619617440e-01
6.653414951782734565e-01,-3.687163811647173883e-01,-6.363323831122218444e-01,9.854389383484767340e-01,1.570284910397741207e-01,3.573118756333080182e-01,-5.914297110318562645e-01,7.995233218074899728e-01,5.583177514834569699e-01,-8.173367881368887033e-01,-2.235642910633937053e-01,3.764061581078204100e-02,-3.518163851358724337e-02,1.061239740353874250e-01,-8.738604571171120217e-01,-5.867372795772474170e-02,2.067749499477522512e-01,-1.950312505942786157e-01,-6.957293286525521037e-01,-5.841060800533683928e-01,2.772146621416848866e-02,8.628876573695549723e-01,-6.600047519807206164e-02,-5.687448884803085747e-01,-1.333036065743611331e-01,5.672098447344504635e-01,9.998910504092382023e-01,-9.555133237631536769e-01,7.839431658281847959e-02,5.317683253182954317e-01,1.136260013527579105e-01,-3.456280576378572000e-01,-4.819771102618704006e-01,-9.922084775607025176e-01,-9.683842955517452111e-02,2.004414991464980034e-01,5.945166792096783226e-01,-4.228426193329017924e-01,-4.069114055069891212e-01,9.666012844714260144e-01,-4.348628183746141573e-01,2.897512552513135109e-01,5.399025876074849961e-01,-1.364319653185452896e-01,9.902490998019781721e-01,-5.568252328514102789e-01,9.475569372058840756e-01,-1.544999635124291171e-01,8.003501465952207461e-01,-3.653320543525631070e-01,-1.544944712735074610e-01,-6.574616223008693527e-01,-9.448073333965234522e-01,-3.945084569417169895e-01,7.044756055643788262e-01,5.968079616442587554e-01,-3.804722273383169817e-01,-4.108190501069390876e-01,5.558837468596973252e-01,-1.602782086667517980e-01,3.109612450809218220e-01,-4.535638350004456143e-02,-3.123455391810552317e-01,-6.166262026286182252e-01,3.849565288752094805e-01,8.424628721938707265e-01,2.342030406199808734e-01,7.968724551674568612e-01,7.760133367817736438e-01,8.598848546312347629e-01,-3.636655248612701286e-01,-4.459923666217167071e-01,-1.263287918583282377e-01,1.835567734980949606e-01,8.976610264367954617e-01,9.212241440792265923e-01,3.996239197206843397e-01,-9.301823230022052691e-01,2.983841453312643388e-01,7.122131714658186397e-01,-9.210172732192045686e-01,-2.124303961155502574e-01,-8.442147170052056726e-01,-2.585435854738655781e-01,4.177922092314427793e-01,5.466130341639237056e-01,-9.520205732357629458e-01,-2.695271048753957732e-01,5.536558209133113362e-01,3.644046681234658358e-02,9.722924767908676102e-01,-5.295226696993000637e-01,7.070969817686805214e-01,-9.542147780298826376e-02,1.381422949157333768e-01,-4.988784031285975473e-02,-9.615877080062196214e-02,-6.283424223318225810e-01,9.041368726171534753e-01,-2.101921662825545489e-01
-8.413226354753180480e-01,8.773886064644611515e-01,2.245853039243077554e-01,-4.506823743865822074e-01,7.721029698104502348e-01,-4.873481722018877527e-01,-8.362980673086986005e-01,7.689695276088537312e-02,-2.981556563142853111e-01,4.785952163958682171e-01,9.706890565514187941e-01,-8.881135719551802588e-01,-6.421776795759546186e-01,-5.105632177894507961e-01,-4.616155639239489794e-01,-3.807386398849368359e-01,8.933263186718789495e-01,-1.031284693952458920e-01,-6.338828454028935244e-01,7.965896080437828708e-02,8.405344702510630928e-01,1.052496210428157664e-01,-6.229512314631060477e-01,-1.326329754792101578e-01,7.029107121732858232e-01,4.329911116152334039e-01,-6.659859461106567569e-01,4.655392555807895683e-01,-4.079375653354380127e-01,-4.466385549309801473e-01,-9.165119188062165190e-01,-3.410041252268891654e-02,-5.475387962403848174e-01,3.050205318663425924e-01,5.063525095277379151e-01,1.104663758896538006e-01,-5.604265003218855679e-01,1.848479670837366307e-02,8.548252839834471484e-01,6.690535888356863303e-02,6.763541898073219816e-01,-4.584698604755432783e-01,2.353073691501454956e-01,-7.412642224619236941e-03,-6.920975459175076061e-01,7.908023194669466793e-01,-7.231746063845243544e-01,9.371422608633823703e-01,-8.038584632607226332e-02,9.587270624443704481e-01,-8.843475799339497456e-01,5.685753389447745221e-02,6.915461708794883311e-01,-9.841302822006288142e-01,-9.181253106282267762e-01,8.076300069989028607e-02,2.591191697590649046e-01,-3.560422700057379597e-01,-6.806736355742986078e-01,6.538536507081986748e-01,-7.176593244545330652e-01,1.762218251804446023e-01,-8.565970257113890707e-01,-7.707766408321992113e-01,7.152864245954060340e-01,-6.982749588300449783e-01,5.831311982920079906e-01,1.947561191825097904e-01,-1.210161225122636797e-01,-5.364640306926400370e-01,-2.311996547425927417e-01,-7.409702811104639242e-01,2.362606400896083425e-01,5.625185023678020979e-01,-6.598037091511099739e-01,4.416686249939962838e-01,3.786497382560733982e-01,2.465483958380554341e-01,-2.624503409655640773e-01,-7.635763739493639513e-02,-9.904911906085007711e-01,9.689075707955430161e-02,-5.911060567515529218e-01,1.915985896529370791e-02,-5.985876689304723275e-01,-8.882537371580134788e-02,-2.648349726993233233e-01,-1.816552132275826015e-01,5.839003149716908148e-01,-2.874904353617191433e-01,1.101824254419607740e-01,-6.653326041168656779e-01,6.564011984571032077e-01,5.347874979326070477e-01,1.696749299668720568e-02,2.636090761951821460e-01,2.428238310633965558e-01,1.103635994470208992e-01,-4.704652562323943243e-01,-2.837444418721666306e-01
-9.013213382125417894e-01,5.376044287672046007e-01,3.844243760102710183e-01,-6.497565236191449323e-02,-3.364558803204993342e-01,-4.886780339271243889e-01,-4.367251161731255937e-01,6.574831150146147607e-01,8.046961971345476528e-01,3.660602107899646462e-01,-7.473666336329114479e-01,-1.614194706169347349e-02,-2.152076712059569630e-02,-8.057470964237138933e-01,2.304579253104885872e-01,7.359554774243026731e-01,-6.325157122559352807e-01,1.141747608777514689e-01,1.955224474061372231e-01,5.094612512196490250e-01,-7.028042923020980659e-01,-9.660740278275650184e-01,1.896215875788569427e-01,3.306831623836377076e-01,-3.820163966896918950e-01,-4.938124312555682849e-01,-4.511419215419132378e-02,-3.678444364433319791e-01,-8.703894720607909807e-01,-6.569733783749420741e-01,-5.198018161885060717e-01,-5.840435930177350077e-01,-4.618931298116066841e-01,-7.569222842871485835e-01,7.200446905118995655e-01,-8.330501229271298769e-01,-1.356790711332445110e-01,7.766989907933186110e-02,4.590105343574490959e-02,-9.468249626404452446e-01,-3.795402319827563264e-01,-2.319101721640719482e-01,8.345582361077652500e-01,6.117268954269641235e-01,-7.620441178016768013e-02,-5.305763800793485974e-01,9.838230339318021489e-01,-3.813199964031703804e-01,3.440407338733721954e-01,9.164892849085657378e-01,-3.121967667574061522e-01,7.712466841900100789e-01,-7.823765615767714898e-01,7.530464314516103208e-01,9.891691953471610788e-01,5.191775647004972516e-01,1.261634202634969171e-01,4.656397320436778120e-01,-9.495160038809815628e-01,7.158975844285864198e-02,-8.675426032498101403e-01,-2.560661485293780348e-01,7.234182883228654770e-01,-3.913911898937654232e-01,2.951852268652019884e-01,1.047034164311777538e-01,-4.066891130905638807e-01,-4.895916078247499748e-01,-7.259459683133728802e-02,4.065570349029998809e-01,-7.472034794807880242e-01,9.075954044201626214e-01,-6.181439862775197636e-01,-6.201627347747062924e-01,-5.813106690077485261e-02,4.361375917769696464e-01,1.810090781504611890e-01,-7.236509951503486970e-01,2.442137066952503321e-01,4.660483669672377260e-02,-3.637326431547371897e-02,7.049210097307829770e-01,-1.732073605350006318e-01,1.973510372024369630e-01,-8.187255662745265283e-01,1.924538907050328262e-01,7.091201942447389328e-03,-1.130375830759440259e-01,6.784061503897025336e-01,-5.069701869694265284e-02,9.463237647326283586e-02,-8.894977816773930179e-01,-6.057305128723633469e-01,6.295996493359878876e-02,9.326552135890420203e-01,-9.566436355763661137e-01,1.372412290484890107e-01,-1.784011575581838649e-01,3.485894654653125535e-01,2.457009998995201006e-01
-2.997484634780256396e-01,-9.232222557484148773e-02,1.898919924273043680e-01,2.820222490602881660e-01,-4.295273578986917862e-01,-6.543252284739515812e-01,-8.004501494793292427e-01,-9.866172328811937398e-01,-3.364334017369590146e-01,6.802426964215069205e-03,-4.653919924145459852e-01,5.622102887176494423e-01,-4.196086510040915041e-01,-2.534743026835251101e-01,7.877030664794633097e-01,-3.394304047927696466e-01,-1.411785214012963863e-01,-9.626983444102668042e-01,3.810004438818477279e-01,-7.198236032553089192e-01,4.956076622943099697e-01,5.248409390141535180e-01,-7.427053082405530304e-01,2.135117050560375596e-01,-9.652258390909573826e-02,9.393821400117636777e-01,3.523362346573597481e-01,-4.876683783875332967e-01,8.086548590530244773e-01,9.515901297564497430e-01,-5.633300116122923473e-01,6.656821109847748108e-01,-5.905270528167507749e-01,-2.496878125491481804e-01,9.076782806070486931e-01,-7.085968202447490150e-01,-1.849306682984641625e-02,3.650571376639126786e-01,6.443441217500378571e-01,5.737196866335723122e-01,1.659519855919775466e-01,9.974689182634719486e-01,-7.938499056299002099e-01,-3.161304187134321708e-01,4.253120989313297073e-01,9.592055044324716562e-01,5.930098400306873518e-01,3.268279509909817193e-01,-1.161777322565780146e-01,5.038093903041496180e-01,-3.557739689230787761e-02,-9.308933969689847654e-01,-4.276685636243222621e-01,-7.818550367920218402e-01,7.898678672550700774e-01,7.504904482168681668e-01,-3.946944853131961750e-02,-4.973724385166644613e-01,9.918901071560097815e-01,7.301947106573507540e-01,-6.178184797969301645e-01,-7.953521155937037790e-01,2.592958546309920287e-02,-7.120774699468945812e-01,-7.341525962514232617e-01,-4.304006386709868792e-02,-4.473593988057684712e-01,7.844664707562829520e-01,4.310657646841820068e-01,-5.360963428415597143e-01,-5.663262994546989226e-01,-5.274576028338149314e-01,6.199096949832436643e-01,8.996187180760559787e-01,-3.897395803892194088e-01,-8.004298051568523586e-01,4.319350861738249225e-01,5.042501503067813307e-01,-2.097103749041246967e-01,-1.288108181902485327e-01,3.216151839981129523e-01,8.341834569201695970e-01,3.822853975397633164e-02,7.831043368936372318e-01,-4.460745869188649237e-01,-3.910391786184808094e-01,-4.287826823810245713e-01,5.715497004170051465e-01,3.867958647949465423e-01,-9.456440708176594434e-01,4.999064021151111703e-02,5.419994135870853658e-01,-8.660299714117272174e-01,-6.271757651247402698e-01,5.795885479126507978e-01,9.510746981326327898e-01,-3.493714868708264198e-02,8.143740256879168360e-01,-8.589359699246708058e-01,2.423161709510606165e-01
4.898925536080183107e-01,-5.846890270080702390e-01,-6.055920499139624269e-01,1.102189290515023234e-01,-2.788981582301053308e-02,-3.309791758555640229e-01,4.270814940142186877e-02,5.738672288792172616e-01,-3.075938893687764075e-01,-5.145491857897543930e-01,1.963366426718904378e-02,-9.496413683302618036e-01,7.518702007824886735e-01,4.467895695395585065e-01,-4.810485274105469333e-01,-5.300593470088932335e-02,1.382709394937013947e-01,5.819195758665447471e-01,9.887453728809858511e-02,-8.298080107380061410e-01,9.731501322822082578e-01,7.898014075026624781e-01,-9.249953535595862864e-01,7.303881837209948991e-01,-2.421432570590127398e-01,4.107927972478819800e-01,-8.924806353489378452e-02,5.445990396226076946e-01,3.632356065994426508e-01,5.789868781873002135e-01,-1.059539546815351230e-01,-5.350979066668415385e-01,-4.878066816496209324e-01,7.594942330949190357e-01,4.250825681329928329e-02,-1.975665329369769019e-02,-2.536245753611094944e-01,-4.848490969813386009e-01,-7.154089892631076975e-01,6.270015794290149103e-01,1.695791039355847296e-01,-1.498300523708673282e-01,4.588688834675298533e-01,-7.680718890686235589e-01,-4.356751978330710706e-01,-9.951265255760066708e-02,-9.604825663234035638e-01,2.455774787152840144e-01,3.333423411302587347e-01,7.795936376174019689e-01,5.697669635301745306e-01,1.142264042192420170e-02,-4.740227382288806357e-01,7.531165337226550793e-01,-1.592876197671095895e-01,-5.431512604355104301e-01,1.444830658522449074e-01,-7.602980593211960958e-02,-6.187952731557158081e-01,4.375898552482690995e-01,-1.004233588353287132e-01,-5.201011558259036605e-01,-7.673526456565684661e-01,-2.277968687010276660e-01,-8.491288574669741962e-01,3.438370198567595182e-01,-7.540008153490174170e-01,-4.781923632439186722e-01,-3.555347754621602796e-01,5.563570703831799413e-01,9.903392622813895763e-01,-9.920862112466450888e-01,-3.324095730716347674e-03,-7.709869841795022882e-01,3.463273646150137886e-01,4.323748971720320355e-01,7.723401789440116350e-01,5.965234563268226875e-01,-9.990072386841404306e-01,9.615206623779783968e-01,7.490488072818901610e-01,5.106572074146551454e-01,-4.561136533743228583e-01,-6.583553167161997344e-01,8.512353143476742989e-01,-6.060825576072417231e-01,3.421237989921024347e-01,4.290845475551934296e-01,-3.338753693246694354e-01,3.594882544352691056e-01,7.097474877900094015e-01,6.997608453796890782e-01,-1.976965986463796732e-01,-3.314929130777137800e-01,4.662263598187381675e-01,-7.202641141495536026e-02,6.006754851762523550e-01,-4.301088529131802396e-02,-4.690909952075434930e-01,6.081564932449226024e-01
-1.680598754494719849e-01,-1.288509918391735898e-01,3.196886110562349170e-01,9.136950309248583757e-01,3.663600247554477107e-01,7.569308520361868187e-01,4.778796476697033668e-02,-3.024321812978667534e-01,-9.745675923626659909e-01,-3.147972200707578327e-01,-1.059167732539560980e-01,6.138681376815036117e-01,-1.087060151015777354e-01,-7.299104467235872917e-01,-9.558061470838672413e-01,5.561622456105141943e-02,-8.568456679812461729e-01,4.206671973207476434e-01,7.158026410521678429e-02,8.297169028478696973e-01,3.884463535798257094e-01,-6.080017984756840299e-01,3.197463595811798065e-01,2.593020436910185023e-01,-6.472377288901043357e-03,4.505239112707104532e-02,8.069166462327714839e-01,5.121062260443132175e-01,9.099185539702634440e-01,6.377469428869106949e-01,-1.114143545249994816e-01,-6.282652003148898601e-01,-7.826835080089018515e-01,-8.456073134123909263e-01,-7.253905275644101369e-01,-7.006730760493471433e-01,1.615582421646675204e-01,4.858879869240426697e-01,-9.895184033101822596e-01,1.937830931680626367e-01,6.182519690810197588e-01,3.520286163146393310e-01,-1.770403997786940131e-01,2.200115754241342980e-01,7.492117429556950370e-01,7.454241892248734125e-01,-1.972710237470614025e-01,6.981055227272856545e-01,-9.969315395664950508e-01,2.920498724276789915e-01,2.065546986476023417e-01,6.542598381870101676e-03,-9.015086781319094911e-01,-7.704672184347454156e-01,4.176375643293901430e-01,-7.339799212508177906e-01,8.220582760896526509e-01,-6.455695389122857453e-01,-8.672000929867107466e-02,-4.144226203276346610e-02,1.083301787254851156e-01,6.939859529903662505e-01,8.936618787939247799e-01,-7.135636098919353465e-01,8.267166530265854796e-01,-3.750050840697449761e-01,7.583724776282763091e-01,-1.865309287049745635e-01,6.929379230160348513e-01,5.808500396894868967e-01,2.817978309741508980e-01,-9.150987063951252498e-01,-3.351909190861044330e-01,1.742521915747274885e-01,1.847255218525394316e-01,-1.269681102351705171e-02,7.263674170817340237e-01,2.371185227958254593e-01,3.172317421444765806e-01,-4.857215184297332122e-01,-4.345610550730014676e-01,-7.573873736944705115e-01,3.680075657867212247e-01,1.735086814864428284e-02,-5.422727741046329264e-01,-8.281184197041748796e-01,5.472272694938027371e-01,-2.110851666560591422e-01,2.831138872878580237e-02,7.145219291326401212e-01,-1.777070987403566171e-01,1.542812106084023860e-02,-5.870908443029350110e-01,-6.696451037356085934e-01,3.700250462432839171e-01,3.300165414185176616e-01,-7.129107224905439910e-01,-1.147801583663661251e-01,-8.909481195861812530e-02,-1.744984538630793836e-01
-5.020527501523435188e-01,7.540554837041941738e-01,-2.572055495290652694e-01,-3.614432348823191088e-01,5.540988015314869397e-01,-5.978891970971509373e-01,-4.034449682455689690e-01,-3.103416105386394008e-01,3.421035324813730405e-01,-3.128102908904422108e-01,-8.592450253503947089e-01,-1.047841276325580662e-01,-7.817806512626703785e-01,8.389430189912574498e-01,-3.885803448441029762e-01,6.342081822928082868e-01,-8.849789495884212709e-01,3.226013245894536752e-01,-9.052090836930173356e-01,-8.908935867217131488e-01,-4.374404509047251643e-01,9.735050158761811012e-01,-4.480408375836406609e-01,-1.965220128283311496e-01,4.771759882839323730e-01,-9.077985639061723067e-01,7.408545504403432069e-01,2.972848275139057250e-01,-8.952962684702165941e-01,-2.569821292388927425e-01,8.186420613368106114e-01,5.193137490535364442e-01,-8.100658122343884493e-02,8.424427960894698142e-01,5.482086515307145191e-01,-9.086669046729964894e-01,-4.936334445703240981e-01,-4.248453036645896130e-01,-7.302349908690908276e-01,-5.949291283119131357e-01,-4.273583658117448003e-01,-1.823403326774775124e-02,-3.461127367932619325e-01,7.957402072346528854e-01,-1.879744277842199107e-01,4.860502286169925412e-01,-5.929996684374394533e-02,-6.547946343768618060e-01,6.345362009152875071e-01,1.665327389951112291e-01,2.649301782116437742e-01,1.236549660325318989e-01,2.762591704717447527e-01,3.027325312094446552e-01,-2.422727294601623171e-02,7.677891753493637506e-01,6.128355633472593045e-01,2.582809989165586462e-01,7.207830392094005667e-01,-6.263251454314084921e-01,-2.818867432189420263e-01,4.848000276394415220e-01,-2.772220137075847024e-01,3.062136386505101004e-01,-8.133908118539709964e-01,9.813524299094309455e-01,-1.933796144976129838e-03,-4.218850089927193014e-01,-8.597035019594370109e-01,4.640976714847628859e-01,3.603022981953072357e-01,-8.895358362246064132e-02,-9.470797382612425874e-01,7.788152712722746784e-01,-2.658927802058805856e-01,-2.219643753208835335e-01,8.781042595420118779e-02,6.287777266705749657e-01,4.071375070770291149e-01,8.486752740596266165e-01,-8.570959945564260440e-01,4.131637934110297117e-01,-1.284774829621384562e-01,6.001621936332983687e-01,2.004285836148360644e-01,5.071305026182919562e-01,-7.530440078471509757e-01,3.044556548292525200e-01,1.418101506811324519e-01,-8.157671832119781641e-01,9.428701614115442275e-02,9.195500235814113577e-01,6.699597392428862097e-01,7.882802037193830103e-01,5.798680593408247486e-01,-2.558948764016153454e-01,-4.709175607152764620e-01,-5.479130540340828581e-01,-4.847260527944163844e-01,-3.714022374847494312e-01
1.970839403568038772e-01,7.267516800765010387e-01,6.873594348394647113e-01,-2.749297100312020348e-03,-1.307898224928767394e-01,-7.117182120222327324e-01,-5.245756187299051021e-01,-7.282828651011852283e-01,-2.413398661324814842e-01,-8.302600380449041140e-01,-1.235702136539000850e-01,4.734807176863982114e-01,7.647189959196043496e-01,6.593997548329595393e-01,7.711349200710906349e-01,-1.614731993635778462e-01,1.119602566991644288e-01,-5.167142474103418870e-01,1.568075712168752744e-01,-5.236838332939537377e-01,-8.947244441621207134e-01,-6.612366440305690318e-01,9.503145461986972631e-01,-7.955419910559142771e-01,-5.348792505304655887e-01,-2.003517478363139315e-01,1.311892852731237902e-01,-1.347178925014520523e-01,8.458801140795833007e-01,3.527385116405972187e-01,7.220161453141455965e-01,3.546737241444124500e-01,-9.642401202628225754e-01,-2.738382652200010980e-02,-8.004027894519512021e-01,1.232050917268734391e-01,-3.658582412586390831e-01,-5.241507295998613092e-01,-9.209168356776140651e-01,7.304521646974524440e-01,-9.794169318722987239e-01,3.496310719080142349e-01,4.294729855500052373e-01,-5.566910150038264504e-01,7.603691503693379428e-01,-5.974356349670557620e-01,7.556932055206988519e-01,1.421786923131884706e-01,4.487087881814622037e-01,5.924098127510661893e-01,-2.421179831402782145e-01,1.308355673858334622e-01,-7.785468535296444781e-01,-7.191704604580406723e-03,2.307608081207357387e-01,7.437270442824317485e-01,3.499916299365921635e-01,4.062046984675571348e-01,8.384179167590757320e-01,8.402196554346463842e-01,2.313733510007303096e-01,1.395031197116207711e-01,-4.651018577871666171e-01,2.352778260781176467e-01,2.155681506243334322e-01,-2.789217380574604555e-01,-2.485939729201682713e-01,-5.432880760907616846e-01,-3.828991868059066217e-01,5.169893139109338343e-02,-3.560064983463495647e-01,7.273585747663466883e-01,-6.554776273724729485e-01,-7.985420099836155750e-01,-6.340413780439100311e-01,-4.163752242298142114e-01,7.353118318093003758e-01,-9.402484893236759955e-01,-3.884952641078822655e-01,-9.973916338945811866e-01,7.092584518633839874e-01,7.392435683129772173e-02,-6.663905109554919548e-01,-8.653721290222571305e-01,-4.802323593811270719e-01,8.061215634437812749e-01,9.064376191966216911e-01,-8.008263033740425918e-01,4.631862818396501602e-01,6.817029238815457415e-01,7.659801542900230853e-01,-5.034830712211655346e-01,9.640868595667138052e-01,-1.260247647859025211e-01,5.565831947238297772e-02,-9.298813364069895560e-01,-7.715884583332335289e-01,4.028029895591298537e-01,-6.803456952818403014e-01,-5.492375416914008213e-01
-1.149457991014302127e-01,-4.410721306223763793e-01,3.389413806392691519e-01,-8.143892510311139254e-01,-1.899796428058444508e-01,-9.994246632183310108e-01,-7.614039552297344748e-01,-3.140790811325049336e-01,-5.906409650664528055e-01,-6.948286303740509595e-01,4.840597156231327691e-01,-5.421280379925190740e-01,6.128383572504896293e-01,5.855415369121295122e-01,2.871202576823372876e-01,-6.551060844656795279e-01,5.992973419637246391e-01,6.853544133591349397e-01,2.581223759207997848e-01,-9.591637802798296253e-01,-7.199154353784125160e-01,-1.367952117461517236e-01,5.855830072718417600e-01,5.016098095257932599e-01,6.075654220478532430e-02,-5.351670966269606033e-01,-2.478585193210300908e-01,-4.687371741168873118e-01,-1.778281759651274552e-01,-5.819577190636082697e-01,1.714944635610216039e-01,-3.807283038224407168e-01,-6.997889844219151723e-01,-8.304555338563159861e-01,5.662181743662888511e-01,-7.522173918836765338e-01,-7.506467458781245217e-01,-5.916246208749693647e-01,9.206190660172097751e-02,-2.164173256765766773e-01,9.370460683831243198e-01,-9.355079792884406498e-01,-3.404463127973949010e-01,-8.813941772924418494e-01,2.484813919190749232e-01,7.712413677457976569e-01,2.939374986014717805e-01,2.555936502758444639e-01,8.386432132644954240e-01,-6.382093380516380421e-01,2.573769804686747431e-01,-4.230901920469076760e-01,3.957806937961028115e-01,8.894737520452724588e-01,-1.489556955985784636e-01,-4.454308192330025395e-01,-7.058269475307132890e-01,-2.246181577709929211e-01,2.752215232740966577e-01,-3.441464350517289272e-01,-7.006055591887538903e-02,-3.150631326314949909e-01,-1.884677544591042420e-01,-2.859169361468463233e-01,3.091629541122355995e-01,4.484248612716486004e-01,2.968581858364824910e-01,-3.687824466364411080e-01,6.829722648976714883e-01,6.902424181233812739e-02,5.619438001900745050e-02,-4.861663522982124785e-01,9.845000298112396298e-01,5.827622193785164662e-02,-6.564815055012984679e-01,-7.026036945712912374e-01,-5.099812197060276109e-01,-9.445174513057639221e-01,-4.223389906754047018e-01,-3.954290394542367970e-01,-5.489769681950895652e-02,-8.641021096349388309e-02,8.282506392954736008e-02,2.460843409569737350e-01,-9.492123317933951476e-01,2.210692996889138673e-01,6.736850057276444481e-02,-3.325423511605340998e-02,1.785357032680909839e-01,-1.084974692371163396e-01,-9.992456553415558496e-01,-2.645919378407186606e-01,-5.546323720438692817e-01,-2.067461096987066593e-01,-5.126200192274834588e-01,-6.176978390917804429e-01,-1.429411615639739619e-01,-3.704748151006622692e-01,-6.098962837109851431e-01,-9.570131072385612558e-01
-6.948815114662805215e-01,-4.540338154490561884e-01,-8.363057457568159325e-01,-2.383212093613096272e-01,8.063250165248840862e-01,9.927677144465922865e-01,-1.411542047667087019e-01,-1.857088291868398411e-01,5.797668870353023252e-02,5.624275554567987889e-01,8.647346991779598646e-01,1.713097994400003543e-03,-3.193369820383629154e-01,-5.547342387391283047e-01,8.693470863081047550e-01,2.778653858658368669e-01,-8.835471893552055977e-01,-3.509298883901015298e-01,-2.188694184751287519e-01,4.133420918425649848e-01,-7.560171342750154899e-02,3.547133995355657987e-01,2.489211253108825073e-01,1.520750274319637718e-01,-6.591565338443095001e-01,-7.858847813666112181e-01,-4.211005408898076396e-01,9.901612367606367204e-01,-2.863765517679879302e-01,-2.412368853199298169e-01,5.784896123658063161e-01,2.211841691654103936e-01,-5.502535889427586646e-01,7.814035352997836803e-01,-2.455879264256610739e-02,-4.088257925209139998e-01,-9.981366420766151215e-01,2.192125263701696358e-01,1.081523665436741055e-01,-8.607992688837740047e-01,-8.679095048848859406e-01,-8.149453249777931507e-01,4.435453435654099774e-01,-9.698876043028858973e-02,-1.881334372695033785e-01,9.996968974270361574e-01,-4.626944821619587422e-01,-4.168859410671368337e-01,-3.779177341326389605e-01,-6.720730707450386365e-01,1.519273830014864490e-01,-6.958920526570497866e-01,9.394077629135921814e-01,-7.229070703176168067e-01,-5.958858176616739222e-01,3.503031628575026257e-01,3.107852498718801648e-01,-1.586529221405799106e-01,9.489530688059626407e-01,1.797223687633862088e-01,6.874101238684013904e-01,-9.536039786340946289e-01,4.839398042421727553e-02,5.747935744588559270e-01,9.839802728276625388e-02,-3.521368037246142002e-01,-9.821995889523715828e-01,-8.980302912114965785e-01,3.344944271899836785e-01,-6.095770782624760908e-01,-3.741809106589013556e-01,8.849594310204318415e-01,8.949887264851006385e-01,-1.069577146157334457e-01,-6.175285644547621189e-01,-2.781854011241022828e-01,-8.649615941869679414e-01,-9.361869879974893394e-01,3.611293143151410590e-01,-2.053791327625962282e-01,-4.706012698652441983e-01,8.841427966069581590e-01,5.596015649296792738e-02,-1.240083082861065389e-01,-4.424811837842821394e-01,1.808384632517043844e-01,-5.673186575668911491e-01,9.951440310556536328e-01,2.388617398219732291e-01,-7.626045172057744903e-01,-3.006135190655108147e-01,4.325157742107741399e-01,1.338187451140613327e-01,-3.085132005952395673e-01,-4.435619038779954337e-01,7.430816304144878259e-01,3.356671189461861715e-01,-8.879946358534120954e-01,9.890058692849579280e-01,1.072021139987588967e-02
6.211353248974000874e-01,-2.130072954574095956e-01,-5.892747554752213457e-01,7.209027690612634931e-01,-2.759147836204152160e-01,-8.568115531957516406e-01,-3.897753080214660937e-01,-2.394633256659604026e-01,-3.512071084022123646e-01,1.329922090998463258e-01,8.155739725355697356e-01,4.795986302655221856e-01,-3.220275585245524486e-01,4.821591088978383066e-01,-9.471254349250621818e-01,-8.411275339529136197e-01,7.792725038266381521e-01,-7.755521550222141958e-01,-8.748508477228849056e-01,4.431820946380793380e-02,-8.525624615290248176e-01,-6.123649208871273508e-02,2.677021763045930314e-01,-7.859200329994868728e-01,-8.933395165176576391e-01,4.140996996651860051e-01,2.369548343101535171e-01,4.701017313534858744e-01,9.763588194538359577e-01,3.536902387698241945e-01,-7.349209477027984772e-01,-7.562483547998950506e-01,-5.444254622864248550e-01,6.472975637292872619e-01,3.997925744702546247e-01,8.874390509155676288e-01,9.834426587166149591e-01,4.326286541890567161e-01,7.424077803758588612e-01,7.932447713674359857e-01,-6.692458103753171628e-01,8.272181456798954891e-02,-7.074487999546219541e-02,4.433981098913504226e-01,8.000319657104599802e-01,-5.737565387718444043e-01,-8.587554050440557862e-01,-9.058975743534181113e-02,-4.245736342951147435e-01,-6.760429559468716931e-02,-4.077858217019780795e-01,-4.564440500748334628e-02,-2.950319656757911524e-01,-1.877385849803465678e-01,6.832110351189630837e-01,-8.377819413319567143e-01,5.350517023376712977e-01,-3.613793161741027937e-01,-4.093273744285959026e-01,1.605898536777581320e-01,8.213052802077775993e-01,-6.211884310161153167e-02,8.249385793581083259e-01,2.829238267739233592e-01,-2.604787683737481707e-01,-8.871207264333742515e-01,1.022316671863476856e-01,1.327164018477664520e-01,-2.106909891728001583e-01,1.272211321241139004e-01,3.952348672358392268e-01,5.473349306335131281e-01,8.348210922850829441e-01,1.086333596760387099e-01,-8.701953384176244199e-01,-3.491639938281154709e-01,4.181301094943827845e-01,6.922658052491903469e-02,9.786593003436050431e-02,6.416158029890828285e-01,6.680872692184398609e-01,6.070139150126896421e-01,2.490168217085380054e-01,8.536088924318896431e-01,4.900086818897335661e-01,-7.190366745499015000e-01,-5.501713024304255573e-01,-6.147552877182238529e-01,-5.065323077197214641e-01,8.821440753879090657e-01,-1.551464189261115845e-01,-7.162726789223496926e-01,5.771664428795997281e-01,9.753718461447895560e-01,-5.660582393911857135e-01,-5.949703102599901428e-01,-3.417598616920698440e-01,-4.655368052674107027e-01,-5.523970311951786893e-01,2.466919439635153477e-01
